173 100
from -0.00134707 0.0032049255 -0.0035250296 -0.0025369818 -0.00541918 0.0010797848 -0.003564249 -0.0016966842 0.0030517408 -0.00032071956 0.0014677552 0.0014987272 -0.0015254297 -0.0013379998 -0.0025095227 -0.0018956846 0.001965026 0.00033944112 0.0026174048 0.0008696615 0.0028072472 -7.0371665e-05 0.0025682764 -0.00043360415 0.0024156065 -0.0033218234 -0.00016869234 -0.00045000666 0.00110923 -0.00011304372 0.0020529039 0.0016039549 -0.0041399514 0.0033195205 -0.0018905282 -0.0017924164 0.0026168784 0.0017116808 -0.0040163915 0.004663901 -0.0027988965 0.0052253185 -0.0020424107 -0.0013817642 -0.0036122752 0.002913168 -7.2847266e-05 -0.002798591 -0.0011679783 -0.0036102086 -0.0014016078 0.0032594563 0.00015646117 -0.003079559 0.0007722318 -0.0011096292 -0.0021366857 -0.0015515824 0.0020319629 -0.001232306 -0.00029076275 0.00356587 -0.0027232317 -0.0043237433 -0.0007612742 0.0006900241 0.00026381033 0.0010042065 0.0015888769 -0.0009986311 -0.00072151923 -0.0022609269 0.0019676439 0.0012474548 -0.0021187505 0.0034104765 0.002621256 0.001366447 0.0011526954 0.00082754734 0.0016099953 0.00085207616 -0.0023396728 -0.0030643053 0.0023332646 -0.0007840984 0.004647753 -0.002899254 0.00075599493 0.0017407592 -0.0020421522 -0.002396009 -0.0038939095 -0.0025771074 -0.0008505484 -0.00027087776 -0.0012612824 -0.0014262008 0.0018436085 0.0011243493
to -0.0030287062 0.0063570207 -0.001405401 0.0024099702 0.006118854 0.00208362 -0.0076401765 0.0046843495 -0.0007252299 0.0070559923 -0.0005029552 -0.0021627415 0.0016600178 -0.0021134203 -0.0004888873 0.001049823 0.0011988734 -0.00042657752 0.0037157354 0.002647068 0.004794088 -0.0047467705 -5.2509364e-05 -0.0018110287 0.0008902268 0.0025255368 0.001056325 0.0015193003 -0.0014799763 -0.0031078393 0.0057763094 0.0027285577 -0.0013028093 -0.00021268614 0.000855749 -0.0005337298 0.000805447 -0.0021868758 -0.0012756317 0.0049405256 -0.0057617435 9.7514596e-05 -0.0056396998 -0.006406145 -0.009696864 0.0068607302 -0.0030690422 -0.0026398555 0.0007701558 -0.00084091956 -0.0040520644 0.0031485066 -0.00044770457 -0.0055510276 0.0006187217 -0.0016726558 0.00033529848 -0.0011685003 0.0009956672 0.0012862267 -0.0038984618 0.0005723769 0.004132086 -0.0011961346 -0.00041410676 -0.0057844133 0.00349994 0.0003869183 0.004040624 0.0017504646 -0.0033347248 0.0011004916 7.258239e-05 -0.0027392353 -0.0010410282 0.010220658 -0.0022005185 0.0012586206 0.0027483134 0.0047824387 -0.00015872438 -7.252151e-05 0.0043688063 -0.005996528 0.0013084417 0.000117311705 0.0017352275 -0.004453278 0.0012384464 -1.2577744e-05 0.0012129176 -0.0017660961 -0.00060031447 -0.0027105594 -0.00028064626 0.0027821315 -0.0044299243 -0.0051260237 0.008699247 0.0034627425
garching -0.0013734122 0.0037152956 -0.0030460302 -0.000622958 -0.0026610573 0.00010699813 -0.002284814 0.00037496138 0.0019259901 0.0024872315 0.0011236975 0.0009874733 -0.0017731746 -0.0051336926 -0.0015427342 -0.00021283452 0.0012455032 0.002038856 0.00026412887 0.0020340171 0.0031980446 -0.002055348 0.001656723 0.00031102475 4.851048e-05 -0.001204096 0.0013320522 -0.0026157317 0.00076546386 0.0003112033 0.006577018 0.0006371121 -0.0024096323 0.0011648682 -0.00134283 -0.0020918148 -0.0006910682 -0.0017100931 -0.003763968 0.0023857418 -0.0039820787 0.0015358692 -0.0014811641 -0.0010877505 -0.0014843328 0.0019267439 0.00019611449 -0.0028056954 0.0008172153 -0.0011195302 0.00013246713 0.0021301592 -0.0004194685 -0.0020460403 0.00050642743 -0.0015365316 -0.0008252469 0.00042760497 0.0023155182 0.0007874708 0.002218742 0.0037376778 -0.0005988907 -0.0051250416 -0.0018292844 -0.00022875545 -0.001505868 0.00093797647 0.0019275342 -0.0012574366 -0.0027398465 -0.003342012 -0.0013847804 -0.0031510124 -0.0016061945 0.0027211977 0.00067291217 0.0015210643 0.0006894678 0.002835433 0.0013253526 0.00010284009 0.0017444355 0.0007147573 0.0033677518 -0.00024135684 0.0012047874 -0.0013888949 0.002783598 0.00011283568 -0.0010730199 -0.0008988448 -0.00044230674 -0.00041890994 0.0029205706 0.003164138 -0.00015234057 -0.004692904 0.0051468383 0.0005233233
the -1.6713913e-05 0.0051505812 -0.007917241 0.0006891805 -0.006011269 -0.0016564338 -0.00045067864 -0.0005363305 -4.4209282e-05 0.0005191104 0.003219225 -0.0005264315 -0.0017949303 -0.0035815556 -0.00061467086 0.0019963128 0.0009554742 -0.00038587957 -7.782324e-05 0.0041330904 0.0043216874 -0.005113294 0.0013523343 0.0020843875 0.0005713378 0.00039490612 -0.00045954663 -0.0009771091 -0.0014165895 -0.0014269942 0.005701136 0.00046842053 -0.004120362 0.0011427925 0.002419384 -0.00056765537 -0.00024844552 0.0019703968 -0.0025122056 0.0039790315 -0.002178864 0.004253031 0.001841098 -0.0018465633 -0.003115242 0.0055631646 -0.0011425436 -0.003582733 0.00024761207 -0.0015409681 -0.001472612 0.0002842466 -0.0019183453 0.0013474753 -0.0006113415 -9.385282e-05 -0.0016045377 -0.0011415548 -0.0022415954 0.0036492047 -0.0013688357 -0.0010642005 0.0026639868 -0.007907258 0.0011791327 -0.0003585964 0.00085946143 0.00052200636 8.657501e-05 -0.0015737793 -0.0027569067 -0.0029009562 0.0006860891 -0.0015620068 -0.0032889717 0.0046166205 0.00017103765 0.0058258595 0.003384322 -0.0022572184 0.005836311 0.0046642837 0.0060116225 0.0006298013 0.00304445 -0.005748202 -0.0021451055 -0.0020454363 0.0005104915 0.0038060925 -0.001334529 0.002481094 -0.0018771512 -0.0020450705 0.0021348768 0.002059766 0.0006218598 -0.0007291852 0.004888916 0.0026190842
next -0.0025010991 0.002681245 -0.0059512435 -0.00062282576 -0.0024402468 -0.0009934171 -0.0023424702 -0.0005012503 0.003955524 0.004003707 -0.0018700288 0.0008031297 -0.0010095836 -0.0032676964 -0.0020087624 0.00016868449 0.0022823382 0.000499801 0.0035260872 0.0031315477 0.0013816487 -0.00220678 0.0007986801 -0.0018658885 0.0033644757 0.001474388 -0.00097525236 -0.00019276384 0.00025322803 -0.001145242 0.006295945 0.0017484911 -0.0025009753 0.0018986437 -0.0014996083 -0.0017271951 5.3188807e-05 -0.0030811033 -0.00022980146 0.0018792816 -0.0039466172 0.0021140554 0.0003626559 -0.003404878 0.0014002396 0.0027649014 0.0002567025 -0.0015119106 -0.00096027885 8.281276e-05 -0.00036822024 0.0022173596 -0.0001641136 4.7887675e-05 -0.00020626815 0.0005677827 0.0016787588 -0.00010053085 0.002044714 0.0032763034 -0.0008764386 0.0018738799 0.0017445334 -0.005668238 -2.0781468e-05 -0.0026546847 0.00019964237 -0.0009807628 0.0010531018 -0.0011276155 -8.002377e-05 -0.0009790771 -0.004223945 -0.000327597 0.0028021166 0.0039476785 0.00039412285 0.0041527115 0.0044297087 0.0011888328 -0.0035049156 0.0005239805 0.0022615308 -0.0017427335 -0.00020817887 -0.00015380695 -0.002490271 -0.003096692 0.0008611078 -0.00059034413 6.185938e-05 0.0011614643 0.002518757 -0.0004178441 -0.0004860614 0.003437984 -0.00038736695 0.001108659 -0.00038576525 -0.0014938328
i -0.0039597577 -0.0047527887 -0.008248685 0.0004258121 -0.0023179124 -0.0003180199 -0.0009549197 -0.0017705121 -0.0001398588 -0.001002526 0.0034707272 0.0034450009 -0.0037341854 -0.0044730916 -0.0018935875 -0.0028184324 -0.0005014316 -0.0038174617 0.006049416 0.010162171 -0.00026550633 0.0017614312 0.00964334 0.008926472 0.0037745838 -0.010073698 -0.0071419394 -0.0021069704 0.0018153673 -0.0028248248 0.010561086 -0.0052331616 0.0008121822 0.003212945 0.007289287 0.0006096838 -0.0009769588 0.002631074 -0.007693694 0.0032181412 -0.004733001 -0.00060793175 -0.0021669627 -0.0003810033 -0.0077757654 -0.00016328134 -0.0005222531 -0.0020066304 -0.000116277486 -0.006685658 -0.006495525 -0.0005654114 -0.0005470447 0.001477429 -0.008137463 -0.006962125 0.0026612852 0.002434688 0.0049327696 0.0014125146 -0.00789501 0.0019933016 0.00773443 -0.008276176 0.0034011477 -0.0010311295 0.00057555304 0.0036325534 0.0043970766 -0.009231085 0.0029513554 -6.450596e-05 0.00540955 -0.00014753663 -0.003196117 0.00273945 0.0021815053 0.0046628495 0.006210965 -0.00204277 0.0034714136 -0.0057630083 0.0071992013 -0.00013454561 0.0026427377 -0.0025545366 0.0045048813 0.00084977434 -0.00096398604 0.00056798314 -0.0062978817 0.002992353 0.004448223 -0.004978534 -0.002153748 -0.00015364587 -0.0017126496 -0.005041995 0.00021563051 -0.006235959
when -0.0019681363 3.8521786e-05 -0.00018150893 -0.0036373606 -0.0043189307 0.0018726654 -0.0018267304 -0.00023818681 -0.0024078342 -0.0015525665 0.00054340926 0.0010415611 0.0039954707 -0.0035442414 -0.0024787136 0.0015532721 0.0006221182 0.0021076377 6.482595e-05 0.0015200694 0.0010348216 0.00061520975 0.002478398 0.00027748942 -0.002330956 -0.0012284919 0.0040469393 -0.00031460932 0.0014617943 -0.0010248228 0.002999727 0.0016940002 -0.0018280988 0.002526168 0.00055508135 -0.003186171 -0.0012712427 0.0014892451 0.00010836082 -0.00035511723 -0.003640688 0.0010267426 -0.00065093936 -0.0024381399 0.0007160321 0.0034858098 0.003252192 -0.0048400573 0.0018159043 0.0012060495 -0.00052854454 0.0012718729 -0.0041178125 -0.0032541177 0.003965245 -0.0025838427 -0.0012092787 0.00090286136 0.0020884417 0.0022500956 -0.0016576742 0.0014777854 -0.0036561796 -0.0018623038 0.0014982604 -0.0030206628 0.0016042256 -0.00017584284 -0.00162314 -0.0026540945 -0.0020415226 -0.00048914104 0.0014815693 0.0012720663 0.001917848 0.0037848079 -0.0013366785 -0.0020525644 -0.0009344192 0.0021772173 -0.00044800685 0.0012135787 -0.0037327295 0.0019218896 0.004670937 -0.003531563 0.0016876794 -0.0012884635 0.002312916 0.001252078 1.3351356e-06 -0.0026122297 0.00078757684 -0.001424836 -0.00071273616 0.0013913104 0.00016097962 -0.0024980933 0.0044955052 -0.001778106
how 0.0015327076 0.00053364126 -0.0027848051 -0.006027022 -0.0041727866 0.0007251372 0.0007182644 -0.00056148734 0.0032307159 -0.001445642 -0.0006925747 -0.0038938674 0.00072928437 -4.4979697e-05 0.000417662 0.0006146919 0.0021550823 0.0021486275 0.004886564 -0.00031500202 0.003298282 -0.0022946063 -0.0028987415 0.0016460092 0.00028215587 -0.0011611094 0.0020933782 -0.0015996455 0.0019473817 -0.0022610298 0.0025911757 0.0005200288 0.00014529703 -0.0022974487 -0.0011607644 -0.002371639 0.004664428 -0.0021553196 -0.00151548 -0.0010025689 0.00033897284 -0.0023468912 -0.0055024377 0.00347128 -0.0014789674 0.0026601723 -0.0013102874 -0.0028552352 0.0030708325 -0.0009502317 -0.0013067229 -0.0029856435 0.0013919956 0.004154914 -0.0031439934 0.002009525 -0.0006849928 0.0018709823 -0.0010536684 -0.00014273923 0.00082446943 0.006659019 -0.0020863733 -0.0068194875 -0.001311805 -0.00056162715 -0.0012577849 0.0029905227 0.0009413711 -0.00030641927 0.0026720823 0.0010963699 -0.0019242109 0.00042735253 0.0017298068 0.0044596014 -0.0029751114 0.00252649 0.0018903641 0.00073586457 0.002585478 -0.0008165139 0.0019596217 -0.0005963423 0.0032785628 0.0005770318 0.0018113601 -0.0010624641 -3.888871e-05 0.001527723 0.0005303213 0.00071098737 0.0019176805 0.000647719 -0.0045096935 0.0026991314 -0.002890637 -0.0018694078 0.005205796 0.0021980074
get -0.0027450933 -0.0016489968 -0.0046958285 0.0020256431 -0.0065012462 -2.808769e-06 -0.0053196703 -0.004460723 0.003936837 0.00017434571 -0.002062193 0.002718735 0.002392854 -0.00093587727 0.0030948275 0.001854348 0.0033849583 0.002019303 0.004708751 0.00051888975 -0.0017172581 -0.0033645455 0.0065550194 -0.0019229578 -0.00036350437 -0.002800964 0.005604918 -0.006652824 -0.0016552762 0.001085593 0.005329833 0.0030067288 -0.001581702 -0.0024393625 -0.0032476075 0.001356715 -0.00046146516 -0.002104175 -0.005066208 0.00069298036 -0.006318361 0.006143219 0.002505853 0.00093323103 0.0014888502 0.003911449 0.00028411826 -0.0009114028 -0.00020217523 -0.0033707141 0.00017162746 0.005028988 -0.0025142974 -0.0057523367 0.0036565126 0.0016103938 0.0020907915 -0.0015712178 0.0010733518 -0.0011707608 0.00032012843 -0.0010147309 -0.0009884511 -0.0023651922 -0.00077721186 -0.0031911267 -0.00024998788 -0.00050868734 -0.0016817686 -0.002092834 -0.00167265 -0.0007762883 -0.0037826132 -0.0034475385 -0.0017897309 0.0016240394 -0.00046759399 0.0015127175 0.0011117039 0.0023196822 -0.0016113519 -0.00031884905 0.0026390017 -0.0030145943 0.0060801017 -0.004960435 0.0017645456 -0.0056154346 -0.0012881003 -4.681985e-05 -0.0006312662 -0.0016865103 -0.0020220284 0.001762855 0.00014859425 -0.00026234152 0.003342356 -0.0023469492 0.0024397844 -0.0011189515
can 0.0012756073 -0.0017486063 -0.0060817553 0.0005936664 -0.0021908951 0.00014119256 0.0015349586 -0.00022205025 0.0029525792 -0.0009126955 0.001851766 0.003093835 0.003796373 -0.0015633841 0.0024309603 -0.0018360891 -0.0006535531 0.003989181 0.0034544212 0.0015336366 0.00035285862 -0.0037211548 0.003918497 0.0037248959 0.0010431762 -0.0011637732 0.001919492 -0.0013025639 0.0017544331 -0.0017126056 0.0007124323 0.0017859989 -0.0044063027 0.0022342266 -0.00072982087 9.1388756e-05 -0.0036976405 0.002843067 -0.0007463045 0.0038850978 -0.0041942867 0.0024556373 -0.0011765857 0.0017878729 -0.0041775955 0.0005412231 -0.00063032005 -0.0019538826 -0.0028869756 -0.0020637107 0.002752671 -0.0012555381 0.0026292796 -0.0016512364 0.0018109281 -0.0025227293 0.003880484 0.0014119018 -0.001593115 0.0011461688 0.0012774337 0.0040956237 0.0010160104 -0.00232452 -0.00072982896 -0.0029479547 0.0011836018 -0.0005273273 0.0019391432 0.0007811468 0.004384883 -0.0002429796 -0.0032447935 -0.0002192932 0.0013993745 0.0039123595 8.562578e-05 0.0025511745 0.00035220708 -0.00054317777 -0.00547366 -0.0033729658 0.0029827112 -0.003125136 0.0021830485 -0.0009958281 0.0019688157 -0.0012269566 0.0021085497 0.0050037033 -0.00035587515 -0.00068037247 0.0006004279 -0.0045540757 0.0030305127 0.0025506972 0.0035489632 -0.0047520595 0.0016591175 -0.001167792
is -0.00013334374 0.004204317 1.5857397e-05 -0.0017059561 -0.0025254348 -0.00059001177 -0.0029794537 -0.0031420586 -0.000692309 0.00065174233 0.0017965138 -0.002634397 0.0020742265 -0.002209236 -0.0047265235 -0.0043589063 -0.00030186167 0.003481562 -0.005204308 0.0004816174 0.0041964846 -0.0022689742 -0.0052573644 -0.00086464913 -0.00030274814 9.4259856e-05 0.0023307432 -0.00057495094 0.003283976 0.004177894 0.0029195268 -0.0022286722 -0.0014409607 0.0023344648 0.0008074343 -0.004685243 -0.004722525 -0.00091025815 0.0046439213 0.0015304864 -0.008012928 0.00091863004 -0.0018072118 0.0016013724 0.0042958655 0.0058637164 0.0036701597 -0.0021454731 0.006225529 -0.003067506 -0.0028450019 0.0044479775 0.0049207658 -0.0015178549 0.0005228131 0.0014238133 -0.0002982953 -0.0015081852 -0.0013611388 0.0018130026 0.0008024068 -0.0036088913 -0.0013617375 -0.00024961354 -0.003394836 -4.4451328e-05 -0.00067565084 0.0017694625 0.0002787672 -0.002953226 -0.0042216345 -0.0023122802 0.00011433824 0.005449141 0.002315043 0.0019295831 0.0011650479 0.0013978897 0.006582057 0.0038521793 -0.0018381022 0.0019692834 0.0033710334 -0.003942354 -0.0020352644 0.001871655 0.001233454 -0.0038141527 0.0038291325 -0.0013564238 -0.0024657315 -0.00021764182 -0.0030844228 -0.0033405118 0.0062699383 0.001558235 -0.0026553886 -0.0027780659 0.0036131805 0.002288613
train -0.0019533185 0.0017833464 -0.0054378454 0.002073887 -0.00016694097 0.0020542224 0.0024663731 -0.0013479382 0.0027353652 0.0004843199 -0.002408571 0.00041966682 -0.0012347266 -0.00012198165 -0.0024841293 0.0017912603 0.0015294041 0.0018438882 0.0017974497 -0.0029538486 0.002116932 -0.0046982775 0.0015834003 0.00034459188 -0.00082004635 0.00037385972 -0.0022640994 -0.00082973554 0.0002165045 0.0023163834 0.0027338287 -0.00063068804 -0.0031910606 0.0004626102 0.00057884253 -0.0023668138 0.0033347646 -0.0009203807 0.00013525486 0.0027152183 -0.0026833932 0.003181015 -0.001806055 0.0012867709 0.0024552234 0.003240705 0.0006426199 -0.0027653205 0.0032453486 -0.00104487 -0.0004585829 0.00056840444 0.0010882509 -0.00053815445 0.002518557 0.0010995026 -0.0016343698 -0.0014889725 0.0035634234 0.0014874499 -0.003037941 0.0038788547 -0.0028128107 -0.003241752 -0.003080855 -0.0008947337 -0.00037679108 -0.00042957303 0.0023826768 -0.004623257 -0.0015265534 -0.0011441035 0.00031016112 -0.0027607302 -0.0007480051 0.0054680835 0.0023001616 7.02324e-05 0.0014116383 2.8198958e-05 -0.00032585656 -0.0003194328 0.0021489523 0.0017030523 0.0032156003 -0.00144271 -0.0008385571 0.0008501184 0.0009321712 0.0017564842 0.002200786 -0.00088960683 -0.0021794615 -3.9692735e-05 -0.0009434536 0.0037021607 -0.0015124286 -0.0035236229 0.0026912622 0.0022399868
forschungszentrum -0.00036030213 0.00048253997 -0.0029181235 0.0003786073 -0.00071772473 0.00041539158 -0.00092310185 -0.00073684164 0.0006023884 0.0011490297 -0.00051427673 0.0012854672 0.00035613036 -0.00048309762 -0.0011035908 6.9194684e-05 0.00089444686 -8.204095e-05 0.000804455 0.001342557 0.0014279566 -0.00040558976 -6.464962e-05 -0.00027461752 0.0004281898 -7.334526e-05 -0.00027077677 -0.0010190961 0.00035731337 -0.00041873797 0.0026068306 -1.425084e-05 -0.0025650412 0.0013128133 0.00043443462 -0.00019422101 0.0011417152 0.00017203245 -0.0014692172 0.0017468991 -0.0028864478 -0.0003795334 -0.00073206774 -0.00045145495 9.4241645e-05 0.0009816221 -0.00056783407 -0.0012825966 0.0005705391 -0.0010547563 -0.00022140716 0.0013679767 -0.0012047712 -0.0011584328 -0.0007482212 -0.00094888295 -0.0010542856 -0.00057848124 0.0007368993 -0.0006091459 0.0009192382 0.0012806138 -0.0009978781 -0.0019847583 -0.002145057 -0.0011469283 0.00086020713 0.0010619535 0.0008852884 -0.0029744199 -4.989111e-06 0.00019278715 0.00018353749 0.0005993346 -0.0010483409 0.00084048935 7.2118084e-05 0.0009593122 0.0013510713 0.0005519223 0.0010147655 -4.183954e-05 0.00012307751 0.0015179774 0.0024425862 -0.00049860124 0.00090943393 -0.0029716138 0.001776974 0.00084930006 0.00031198162 -0.0011703832 0.0006170457 -0.0015224197 0.00015112835 0.0010032156 -0.00046159286 -0.0009604064 0.0025671716 0.00025657084
bus 0.0010153581 0.0018401976 -0.002857013 0.00046358505 -0.00083712005 0.0006290501 -0.0015991327 -0.005339752 0.00082589453 0.0030054182 0.0012654674 0.0017905127 0.00237915 0.002884424 -0.0017259599 0.00034358114 0.0023677298 0.002988627 -0.0027294816 -0.0004529776 0.003749589 -0.0031003521 0.0057646567 -0.0020967212 0.0023855171 0.0009667339 0.0004115974 0.00016596915 -0.0017138496 -0.004180947 0.0034980439 0.0046703205 -0.0012002835 0.0016035679 0.0004925249 0.002163475 -0.0020440833 -0.0017803112 -0.003502968 -0.00043578312 -0.00044878 0.0015069124 -0.0031798494 -0.0019833408 -0.00046787137 0.0046048104 -0.0004187708 -0.00027884432 -0.0031147148 -0.0015317027 -0.0013879755 0.0036084428 -0.0005891821 -0.00013075962 9.5087904e-05 -0.0034681086 0.0034506712 0.0011294676 -0.0001511577 -0.00084998494 -0.003655381 0.003997636 0.0014320791 -0.00068897504 -0.00047635025 0.00031635174 -0.00028436445 0.00028373353 0.0024953415 -0.0018735036 -0.0025648323 -0.003258057 -0.0020668935 -0.0006380835 -0.0034811764 0.0044553326 -0.004251845 -0.0011160522 0.0011923856 -0.0008407562 0.00018992877 0.0025129707 -0.0032956642 0.0006904183 0.0026718136 -0.003054836 0.0018473922 -0.00070327934 -0.00051104865 0.0010135324 0.0022372114 4.661509e-05 0.0003016971 -0.0058250343 -0.0010649785 0.0021374181 -0.0041377186 -0.00066369504 -0.00062979443 0.0019554864
does -0.0020802836 0.0008530123 -0.0018980056 0.000526095 -0.0024162068 0.00080320187 -0.0039345487 -0.0025593142 0.0021874593 -0.0009680148 -7.1184215e-05 -0.0031313205 0.0027011 0.00036979292 0.00021300012 0.0017977149 -0.0013540735 -0.0017415113 -0.002633379 0.0005766436 0.0021031036 -9.977231e-05 -8.1093305e-05 0.0010399059 0.00049709814 -0.0027015007 0.0003133199 0.00040090142 0.0049270256 0.0015281962 0.0001578839 0.0018755924 -0.0049768244 0.0023095957 -0.0012249808 -0.0028594793 0.0016546198 0.0023318054 -0.0013767626 0.004721817 -0.00042806577 0.0028964751 0.00085140724 0.0043907724 0.0013124528 0.002624884 0.0016114133 -0.004412356 0.0010694623 -0.00068803225 0.00068875146 0.00065493915 -0.0010922359 -0.00068661704 -0.0024509847 -0.0008688247 -0.0010827985 -0.0041241865 0.0006888161 -0.0006543143 0.00048068035 0.0017295048 -0.0020506354 -0.005531305 0.0016827914 -0.0007016295 0.0017071397 -0.0010460723 0.0036101139 -0.00243787 -0.0031334592 -0.00069308165 -0.0007448764 0.00058315037 -0.0026684958 0.0023618476 0.0026203368 0.0022570444 0.0015069831 -0.00092511415 9.03995e-05 -0.00038169156 0.0023626431 -0.0008976508 0.0013108145 -0.0024618597 0.004199333 -0.0009718755 -0.00029799246 0.00010706163 -0.0007123248 -0.00057151844 8.312776e-05 -0.0018076206 0.0029991458 -0.0020083548 0.0017181304 -0.0032173067 0.0013452545 3.401211e-05
at -0.0043914365 0.003352995 -0.0009607181 -0.0046807304 -0.004333821 0.0022430553 -0.0022667097 0.0032000695 0.0051130382 0.005015113 -0.0054410854 0.0016051134 0.0015902141 -0.0014771181 -0.0018318612 -0.00017310865 -0.0037735915 0.0018145387 0.006548991 0.0017240131 0.0011913686 0.005676009 -0.00026624213 0.0031406018 0.0023298506 -0.0026051407 0.00022677542 -0.0028286013 -0.0032363161 -0.0032727127 0.0015218334 0.0020876676 -0.006492049 0.0054362863 -0.0015256375 0.0018575895 0.0028151036 -0.0040138788 -0.0041975835 0.005395307 -0.0017941236 0.0018420244 -0.005319097 -0.0007640071 0.0037662897 0.0054588644 0.0017650612 -0.00021694554 -0.00038757815 0.0029095889 0.001956844 0.0038023219 0.0006523289 0.0013115159 0.0055968356 0.0049193604 0.00111534 0.0027208943 0.002979094 0.0009981282 -0.0010866172 0.0045976783 0.003340058 -0.0007980632 -0.006185203 -0.0014390381 -0.0007856928 0.0040885694 -0.00013675448 -0.00018117158 0.0054307682 -0.0014434136 -0.00013915368 0.00062905916 -0.0014147612 0.0036167786 0.004903065 -0.002151005 0.0007305106 0.00050172186 0.0018372033 -0.0028507388 -0.002248865 0.00040675735 0.0063704913 -0.0070023313 0.0032153984 0.0011294 0.0029387723 0.004353884 0.0009030104 -0.0049779313 -0.0028809104 -0.0001772606 0.006393506 0.0025482096 0.00083751814 -0.007715987 0.0010401683 0.002603646
in -0.005600384 -0.003065174 -0.0013591098 0.0075994404 0.0012485294 0.0009831111 -0.0019520639 0.0005142981 0.002141782 -0.0011038219 0.006355459 -0.00028941408 0.0013310891 -0.0039827917 0.0020234624 -0.008298034 0.0038517928 0.0006118142 0.0042446703 0.004270576 0.0033066073 0.006255833 -0.0019243257 0.0033796695 -0.0011593127 0.003162627 -0.0053257663 0.00040714943 -0.005523109 -0.0006527738 0.007596529 -0.0013720095 -0.006827975 -0.0034592529 0.0036340323 -0.0036587722 0.00044995852 0.0018539797 -0.0020597817 -9.606674e-05 -0.0028783013 -0.00011905952 0.0007609537 0.007308596 0.00075521093 0.004594429 -0.0017706137 -0.0034042094 0.00055298203 0.002129727 0.0017618755 -0.0018377554 -0.0026807226 0.0033290512 0.00054219493 -0.0007168995 -1.6187434e-05 0.0022800646 0.002907544 0.0004878253 -0.00054836913 0.0032390081 -0.0038337186 0.0008007538 0.0034763094 0.0015730383 -0.0014035723 0.004450691 0.0056137783 0.0020699 -0.0062892614 0.003755343 -0.00051847694 0.001572615 -0.0041422225 0.0067348606 -0.00056859833 -0.002905935 0.002886561 0.0014995558 -0.0033087144 0.0025606418 -0.0049753357 -0.0017047436 0.0011976055 -0.0035330947 -0.003273418 -0.0031319852 0.004853991 0.002629966 -0.0018617789 0.0031000418 -0.00251552 0.0026629977 -0.0028057047 0.0024920169 0.005664047 -0.0033132848 0.004293342 -0.00040713802
hauptbahnhof -0.0001555463 0.002646859 -0.0015903744 -0.0003647605 -0.0013986496 0.00066589145 -0.0011073813 -0.00065520604 0.0020140363 -0.0005486444 0.0017521672 -0.00035558676 -0.0003092866 -0.0014007648 -0.0015960734 -0.00034158715 -0.00024769027 -0.000704593 0.0010169215 0.0005807759 0.000511686 0.0017317786 0.0011326666 0.0013397055 0.00023355061 -0.0005490351 0.00071096397 0.0002663742 -0.00043478332 -0.0010150378 0.0011759785 0.00025441582 0.0004218548 -5.9441332e-05 -0.00019992542 -0.001675036 0.0013659808 -0.00034250272 -0.0032024116 0.0005156359 -0.0023371025 0.00035801178 -0.0004486579 -0.0015493095 -0.0028136647 0.0016900753 -0.00096877076 -0.0020283938 -5.368348e-05 0.0011680416 -0.00094707304 0.0008641467 0.00046532866 -0.0006447809 0.0014195741 -0.00137919 0.0014077597 0.0015914245 0.0018029884 0.0020916066 3.1458734e-05 0.00079821586 0.00018880311 -0.00052926486 -0.002049812 0.00021916913 -4.9911418e-05 0.00072009116 -0.0008756158 -0.00055056193 -0.0012668733 -0.000787486 0.0012635083 -0.0005739737 -0.0009659502 0.00084743876 -1.1384595e-05 0.00013410988 8.412673e-05 -0.0002622362 0.0011577851 -0.0005838139 0.00043749248 -0.00015317604 0.0012270444 -0.0013749254 0.0011406448 9.6329924e-05 0.0010641855 -0.00042311216 -0.0013820825 -0.0020311354 0.00087926857 -0.00013325205 0.0009840343 0.0020368153 -0.0013884032 -0.0017284979 0.0017381139 0.0008816398
odeonsplatz -0.0011633165 0.0002676732 -0.0045325467 0.0018410137 -0.0024821197 0.0007070966 -0.0012571897 -0.0004981182 -0.00068217766 -0.00012146873 0.0005997693 0.0010263082 -0.0022653535 -0.0016118833 -0.0012467515 -0.0007060861 0.0006276432 -0.0019005152 0.0017129699 0.0020571176 5.8616763e-05 -0.0017230476 0.0013691569 -0.00060211244 0.00087919907 -0.0015795722 0.0009199971 -0.0007424738 0.00065516745 -0.00082951173 0.0039869077 0.00029796147 -0.00040523455 1.4472609e-05 -0.00076062715 -2.9583865e-05 -0.0007503542 -0.0014385104 -0.002373357 0.0013450372 -0.0028252678 0.00069182133 -0.0004880561 -0.0005267192 -0.00039951623 0.0017907837 0.00010096543 -0.0015156153 9.9375415e-05 -0.0003232692 -0.0014212325 0.00046913692 -0.0004912056 -0.0014798101 0.0006824847 -0.0016074918 5.865527e-05 -0.0009133239 0.0026290305 0.0007632988 -0.0007429273 0.0021429348 0.00075551757 -0.0032066018 -0.0008962777 -0.00028155823 0.000162035 0.00065761886 0.0005178779 -7.3031e-05 8.903518e-05 -0.0011961838 -0.00010143006 -0.00023170105 -0.0011466069 0.0015749556 0.0002249154 0.0009702081 0.002237642 0.0021330083 0.00023766879 -0.0018295652 0.0011989161 -0.001128311 0.001837126 -0.001857372 0.0012739578 -0.0014204155 0.0018588417 0.0017518699 -0.0006950696 -0.0008129312 -0.0009884262 -0.00335792 0.0014135329 0.0011323335 -0.0018997254 4.9997896e-05 0.0040720627 0.00037687735
quiddestrae -0.0029031704 0.001019395 -0.0030533844 0.0013867109 -0.0025744454 0.00092844036 -0.0018377334 0.000488195 0.00071815244 0.00044046127 0.0019389713 -0.00056619005 -0.0005422369 0.00096490484 -0.0015212314 -0.0012558404 0.0020939393 0.0006530182 0.0015569461 0.0012408514 0.00232994 -0.001783021 0.0005417691 -0.0008890784 0.00029178956 -0.002432263 0.0008899881 -0.00028128875 0.0013564965 -0.00022402506 0.0043077087 -0.0007047459 -0.002706772 0.00043033296 -0.0005586157 0.0003789104 -0.0003880923 0.00035270295 -0.0034978949 0.0025255948 -0.0011183197 0.00074609875 -0.0014685435 -0.0007785358 -0.0011487989 0.0002439977 -0.00016391247 -0.00013029673 -0.00025141978 0.0014205243 -0.0017210727 0.0012649345 -0.00029332607 -0.001400075 0.0008876899 7.1859895e-06 -0.00076856697 0.00035406335 0.0022416755 0.001086217 0.0010046087 0.0017034388 0.0011407874 -0.0030822635 -0.0008442698 -0.00059329474 0.00028265937 0.00012043173 -0.001583963 -0.0020214359 -6.076032e-05 -0.0008505408 0.0011799593 -0.00032238322 -0.0007157109 -7.3591924e-05 -0.0009265077 5.8938407e-05 0.00056155433 -9.822994e-06 -0.00037895673 -0.0017428986 0.0032150764 0.00020978299 0.00069372903 0.0007134377 0.0013297948 -0.0016262829 0.001280334 -0.0014592609 -0.00094359455 -0.0022099244 -0.0016314966 -0.0013524032 0.0007512491 0.0011694365 -0.00011221789 -0.0020227595 0.0039492985 0.0013470488
connection -0.002296076 0.0018576911 -0.0016955935 -0.0010734188 -0.0016077068 -0.0010915082 -0.0007952126 0.0019621942 0.001236007 0.00083269953 -0.00044783534 -0.00094353384 0.00059407094 -0.001875444 0.0006746265 -0.0027545989 0.0007881685 0.0002747002 0.0025335161 0.00019063502 0.004188145 0.0001278705 0.00017012938 -0.00049844314 0.00061198 -0.0032835093 0.0024913936 -0.000106357315 0.0020229332 -0.002203694 0.004246291 0.00015901125 -0.0010951068 0.0010746587 3.2467342e-05 6.408714e-05 0.0026693293 -0.00066513853 -0.0017185635 0.00083505455 -0.0003646129 0.00035962777 0.00019771305 -0.00056032825 -0.000118752825 0.0017830053 0.00014836021 -0.00064559374 -0.001477983 0.001072245 0.00027187323 -0.00030901548 -0.0015446967 -0.0019754183 -0.0011715842 -0.00010883354 0.0019174388 -9.3869225e-05 -0.0011270854 0.001378403 -0.00026318166 0.0020468172 0.00094961567 -0.0037615264 -0.001639348 -0.00022884706 0.0011188355 0.00065930415 -0.00037761612 6.162698e-05 -0.0023467354 -0.0007317333 0.002525158 -0.0010514291 -0.00051661895 0.0014446332 0.00023064994 0.00064129237 0.002654375 0.0016620703 0.00215088 0.0014241742 0.0022274416 -0.0016406904 7.348077e-05 -0.0005990835 0.0020598515 -0.0019498923 0.00086562615 0.00066107675 -0.0021110463 0.000109796376 -0.0012438619 -0.00097019883 0.00059256266 0.0035036094 -0.00012856377 -0.001778551 -0.00016510396 0.00090226316
marienplatz -0.0011331724 0.0016817608 -0.0034997172 0.00012413535 -0.0020819197 0.0003536313 -0.0012721173 -0.00027427106 0.0013833715 0.00036725996 0.0016999763 -0.0005464768 -0.0013788559 -0.0012870728 -0.0010534357 -0.0008209255 0.0015313626 0.0001769007 0.0010885099 0.0016862378 0.0016183043 -0.0010077243 0.0008556073 0.000616726 0.000524165 -0.00023546114 0.002200063 -0.0005984216 0.00033432484 0.000360219 0.0049127103 0.00076404307 -0.0022391398 0.00021453698 -0.0017131979 -0.00046802976 0.00015909299 0.0004862146 -0.0014841848 0.0008621496 -0.0010791125 0.0011772165 -0.0010328802 -0.0012232215 -0.0012946697 0.0007192734 -0.001753794 -0.0021877561 -0.0003084351 0.0001386599 -0.0013109358 0.0020090935 -1.4359299e-05 0.00018374543 0.00038376875 -0.0012992775 0.0008393556 0.00039263204 0.001276431 0.0021866567 -0.0002278025 0.002732437 0.0007107743 -0.0040298584 -0.0018433374 -0.0005526666 -0.0014422869 0.0011126951 0.0010680612 -0.0012414724 -0.00042488723 -0.0022701393 0.00071374787 0.0011623317 0.00014497 0.00225027 -0.0019067392 0.0011447252 0.0030154462 0.0015615571 -0.001158252 -0.00058795675 0.0011769163 -0.00014968899 0.00011258932 -0.00029637193 0.0013611644 -0.0025704696 0.0012462316 0.0019184821 -0.0016405449 0.00061975146 -0.0016786784 -0.0009236835 0.0010204302 0.0012098191 -0.0018541518 -0.001263279 0.001836198 0.00031108563
a 0.006523163 0.0046262955 0.00092101714 -0.0049377363 0.002255819 -0.00521137 -0.0011123323 -0.0050386386 0.0024699557 0.0034152663 -0.0008882198 0.003347418 0.0022308228 0.0032396247 -0.00050138775 0.00066292327 0.0021029434 -0.0036098375 0.003005391 0.003633844 0.007639808 -0.0040315334 0.003124642 -0.0014556977 0.0059533 -0.0013497772 -0.0021199542 -0.0016125437 -0.0011967977 0.00057259423 0.009627953 0.0056281714 -0.0033471156 0.0065417765 0.00084666186 -5.1098992e-05 0.0036344565 0.007701718 -0.009267748 0.0014428092 0.002015477 -0.0038008834 -0.0037815168 -0.0013147003 -0.008114288 0.003748848 0.0058144946 0.000872063 0.0028787686 -0.00022604957 0.006669672 0.0016789295 0.0011231683 -0.004005773 -0.0034864198 0.0004842705 -0.0019285886 -0.0064404756 0.0018235429 0.004491205 0.006388733 0.0012251778 -0.0033735284 0.0044794744 0.0033298484 -0.0035730782 0.0020520636 0.007420893 -0.004633122 -0.0082335975 -0.0073287524 0.0034156167 -0.0002310425 0.000308747 -0.006512104 0.008586295 -0.0019158759 0.00583312 0.00736403 0.0013531691 0.0045419713 0.0049912864 0.001286428 0.001019901 0.0075309393 -5.3034397e-05 0.0031247423 0.0021519957 -0.0046453136 0.008004412 -0.0039872406 -0.0007240976 0.0060725114 -0.0067686494 -0.0004829676 0.0004983628 -0.00184422 0.004054544 0.0005333198 0.00031468098
leaving -0.0013015211 0.002520119 0.00025076387 0.0019271439 0.001134646 -0.00046861154 0.0015800187 0.0024838785 0.00095959735 0.0011129249 0.0021388761 -0.0009938118 -0.0029509405 -0.0006611556 -0.0013283418 0.0017104946 -0.00047864104 0.0006155301 0.00052956195 0.0033585958 0.0032065387 -0.003375814 0.0021140063 -0.0004582251 -6.894953e-05 1.9756186e-05 -4.120894e-05 -0.0009905171 -0.0009110897 -0.001228248 0.0050583016 -0.00035236176 -5.9505032e-06 0.0012065461 0.00010085531 -0.00022800971 0.0006539869 0.0011566348 -0.0020868187 0.0019265471 -0.0014238851 -5.2713567e-05 -0.00036147764 -0.0019921288 0.0010362695 0.0021777197 -0.0010240205 -0.00056919386 0.00088198256 0.0016055338 -0.00030711308 0.00053297135 0.00029347505 -0.0012096163 0.0008401073 0.00032660252 -0.00084425486 -0.0008976105 0.0018719608 8.299582e-06 -0.0009734815 0.0015505834 0.00052438607 -0.0014804602 9.160367e-05 -0.0002782448 0.0018052347 -0.0015981832 0.0010558853 -0.0016743585 -0.0012949295 -0.0014020965 0.0006835162 -0.0030056362 -0.0004132573 0.0009592735 0.0007779222 -0.0008268771 -0.0002985939 -0.00034881075 0.0024010208 -0.0020403843 -0.00056504924 0.0009599229 0.002537199 -0.0013216948 -0.0008231577 -0.00021148338 0.0027578806 -0.0012061237 0.000118465985 -0.00044860822 -0.00030500992 -0.0011274047 -0.0014373986 0.0008788169 0.0010401235 -0.0015911214 -0.00020966849 0.00082549866
leaves -0.0010334095 0.00052741676 -0.004219333 0.002335399 0.0010399072 0.0015549547 -0.0010653907 0.0025730806 0.0006689577 -0.0018953294 0.0030424483 0.00017435139 -0.002450912 0.00064778485 -0.0011100356 -0.00055500865 -0.0018398225 -0.00018713089 0.0009983502 0.0007810436 0.001264845 -0.0021424473 0.0004720435 -4.9664148e-05 0.00041014957 0.00065851654 7.983672e-05 -0.001747107 -0.00015294478 -0.0010249222 0.0019297617 -0.00038469443 -0.002018844 0.004680293 -0.0010123726 -0.0010168512 -0.00057091354 0.002061092 -0.0012639635 0.0007553005 -0.0007413677 0.0002222919 -0.001011829 -7.532607e-05 -0.00071984314 0.0010973023 0.0011174963 0.0005813051 0.0023749229 -2.4817762e-05 -0.001391076 -0.0014511009 0.0006879494 -0.0034645412 -0.00017488761 0.0005924288 0.0024316802 0.0006138041 0.0024820776 0.00060277665 0.002262468 0.00030972552 -0.0005697181 0.00015800349 -0.0017313089 -0.00073646 0.0006937656 0.0013437789 0.00024684687 -0.00349326 -0.0006929121 0.00035376503 -0.00051821256 -0.0025006442 -0.00047060003 0.0016092097 0.00091372075 0.0012294236 -0.0005419922 0.00042325188 0.0027164058 -0.00441041 -0.0014684899 0.00069124706 0.00058782595 0.0007567629 -0.0012574628 -0.002224724 0.001451402 0.00030136848 0.0002973857 -0.0019144418 0.0019253406 -0.00080902135 0.00075775495 -0.00083247083 0.002304516 -0.00024475763 0.001435821 0.0030561553
you 6.5256245e-05 0.0016324294 -0.0026280356 0.0013552011 -0.0033321604 0.0021017878 -0.0008022143 0.0002932933 0.0037304647 7.475645e-05 0.000116171184 0.0008918342 0.0002758171 -5.446308e-06 -0.0035474661 0.0007057999 -0.00057397067 -0.00027423073 -0.0020184931 0.0015581807 -0.0025922058 0.0043195016 -0.0028550464 -0.0014213847 0.0013402496 -0.00020750599 -5.6780435e-05 -0.002003607 -0.000501057 -0.0017881574 -0.000776264 0.000103407736 -0.0035893936 -0.00088416866 0.0029118466 0.003457617 0.0024650379 -0.00024420166 -0.00032164223 -0.0010077889 0.00083665963 0.0025048475 -0.0021082296 0.0010413927 -0.0016928837 0.0021563594 0.00012910979 -0.001170325 0.0014628988 0.0006091524 0.0016788981 0.0032612642 -0.0022533445 -0.0066447845 0.003003039 0.00043580282 -0.00056574383 -0.0021303527 0.0012257575 0.0017923824 0.0017956458 0.00076513767 -0.0018395825 -0.006785191 -0.00027283232 -0.0023495012 0.00010453298 0.0021994666 0.0026916286 0.0027465073 -0.0023353568 0.0023190614 0.0008172132 -0.0013735797 -0.0020683783 0.004866374 -0.004271563 -0.0019985277 -0.0015894262 -0.0002101099 -0.00083037285 0.0038776658 0.000720826 -0.0021653636 -0.0002759642 0.0015532124 -0.00080567674 0.00073832314 0.0007713943 -0.001505785 -0.0011131353 -0.00028940456 -0.0012603131 -0.0024064013 0.006513972 -0.001131395 -0.0012489626 -0.0013162885 0.004549743 -0.0034632643
freiheit -0.003389219 0.00047096933 -0.0012985179 8.444785e-06 -0.001752687 0.0010281692 0.0006758129 -0.0014259778 0.00033436902 0.00016260288 0.0002252343 -4.9625556e-05 -0.00042895137 -0.0016507483 -0.0016118066 -0.001488178 0.0023020636 0.00016889426 0.0024829353 0.0026206109 0.00031989446 -0.00096652535 0.00020317112 -0.00088557065 0.0011681796 0.00036926154 -0.0020850073 -0.00019456487 0.00048218388 -5.657613e-05 0.0039541204 -0.000995916 -0.0025077683 -0.0007468107 0.0015093294 0.00033044963 0.0012538137 4.729049e-07 -0.002024952 0.0015960181 -0.0031063794 0.003282182 0.0012976386 -0.0015087025 0.00012321334 0.0029368743 0.0017591198 -0.0008167285 -0.00031460042 0.000105111256 0.0010440401 0.0018801289 0.0012867992 -0.0014785586 -0.0013386351 -0.0024871426 0.0030484817 0.00097091094 -0.0014938926 -0.00022091636 -2.3348119e-05 0.0015445284 -0.0010029665 5.9303387e-05 -2.2922539e-05 -0.0014495322 0.0009121043 0.0012318381 0.0022065218 -0.0012541818 -4.6400448e-05 -0.002311668 0.00021529433 0.0013811773 -0.0011083735 0.002754716 -0.00065514125 0.0013293358 7.024181e-05 -0.001512614 0.00075398677 -0.00071415445 -0.00034381278 -9.729806e-05 0.00014572106 -0.002125877 -0.0012445607 -0.0027966085 0.003028413 -0.0005518137 -0.00041737646 0.00040002793 -0.0001701155 -0.0005005146 0.00025565203 0.0033377435 -0.002400835 -0.0019064829 0.0023582145 0.0010564586
do -0.0010255534 0.003092437 0.00079977897 -0.0016651087 0.0021835505 0.0030562384 0.0026658159 -0.0019943842 -0.0019550174 -0.0016346986 0.001285984 -4.9393973e-05 -0.0003587152 0.0031057242 -0.00076288567 -0.0038317896 -0.0046081888 0.0023329877 0.00012201397 0.0061045983 0.0023034918 -0.002254387 0.0006365607 0.000991257 0.0013674331 -0.00087989727 0.0006656705 0.0018544885 0.0030984066 -0.0048475023 -9.340304e-05 0.0033595287 -0.0055304454 -0.0055992985 -0.0005763498 0.00088234554 0.000107548025 -0.0032498622 0.0044550495 0.00042014744 0.0005666442 0.0007869909 -0.0016748144 0.0067036934 0.0035337775 0.0035552755 0.0023002059 0.0040904153 -0.0035699238 -0.0015441938 0.00016965764 0.0039426265 0.0014810796 -0.0019455466 0.0055593103 -0.00013643643 -0.0033917727 0.00055742916 -0.0020444854 0.0022913415 0.0027102097 0.0010043676 -0.0010264206 -0.0025976228 0.0009748359 0.00433436 0.0018822774 5.4324744e-05 0.0028449108 -0.0021681786 -0.0060769413 -0.007375 -0.00021462038 -0.0019775666 -0.005214372 0.0010065582 -0.00038826102 -0.0010308655 0.003947442 -0.0024155744 0.0007591535 0.00056102104 6.335555e-05 0.0027797609 0.0018238834 0.003827888 -0.0001868399 0.0019347392 -0.0014753256 0.0052061793 -0.0019067966 0.003193969 -0.0013168803 -0.0001327825 0.00052691123 0.0023523062 -0.0058876444 0.0019807164 0.0011427695 -0.001101916
me -0.0020909603 0.001851488 0.0028146293 0.0014701367 0.0030902587 0.003946826 -0.004170053 -0.0003457351 0.0008605788 -0.0015874237 0.0012575481 0.0012062386 0.0013755516 0.00024151473 0.00077747536 0.002182859 -0.0049612215 -0.0008740584 -0.00039819116 -0.00057463 0.008148102 0.003443919 -0.0018742548 -0.0010187118 -0.0014327776 0.00020741986 0.006246579 -0.00075362343 0.0030982061 -0.008206963 -0.0009072562 8.51847e-05 -0.0071876724 -0.0037717265 -0.0040075434 -0.00362861 0.0029536877 -0.00048369355 0.00021609978 -0.0066031134 -0.0019022238 0.001594509 0.0011284959 -0.0017505615 0.0018216909 0.00088549743 -0.0018993192 0.0003170201 -0.0012452023 -0.00052169664 -0.0065099383 -0.0024650614 -0.001600544 -0.0019139966 0.0002918325 -0.0032660828 -0.00036656484 0.003396369 0.0041697538 -0.00206264 0.0022997498 0.0035045573 0.00068553037 0.00074824604 -0.0012092295 -0.004671733 -0.002924552 0.0011685835 0.0029956738 -0.0025427265 -0.005695681 -0.0007872679 -0.0045954725 -0.0031315733 -0.0018239124 0.0049998914 0.00010400964 0.0011453957 -0.0011724681 0.003200015 -2.7778617e-05 0.0034928108 0.004914592 0.0009948134 0.0038930716 -0.0020850617 0.0016555823 0.0006805174 0.00017876079 -0.00079832226 0.000307556 0.0017669259 -0.00050876685 -0.0020328823 -0.0014678531 0.004021363 -0.001247858 0.0016690841 0.0016263255 -0.0020816
find -0.00020224044 0.0010700597 -0.003954049 -0.0013156567 -0.0007013398 -0.0023865497 -0.0008745302 -0.0031394816 -0.0010842814 -0.00025420813 -0.00035730665 -0.0016634982 -0.00051673304 -0.00034694775 -4.1866148e-05 0.00044996283 -0.00042147693 -0.001013654 0.00239907 0.0016931705 0.0009652777 -0.00015186078 0.0019503463 -0.0028577896 -0.0016031638 0.0014973669 0.002149742 0.0006846333 -0.0042026844 0.00272921 -0.00023716934 0.0016167227 -0.0008204415 -0.00028560692 -0.00017724717 0.00010955122 -0.0029430413 0.0021339143 -0.0028034241 0.0015384402 -0.0017119196 -0.001836076 -0.0011304446 -0.0015782914 0.001300106 0.001365656 -0.001690342 0.0010083772 0.00035695705 -0.0014052794 0.0020464947 0.0022690336 -0.0001489998 -0.0024798783 9.669366e-05 0.0008131739 -0.0017042999 -0.0011994775 -0.0028633052 0.00014267437 0.0014703653 0.0015325508 0.00040916717 -0.0028040174 -0.0009965106 -0.00046493876 -0.00048235524 0.003580466 0.0018399016 0.0006454973 -0.00026941384 0.0017509569 -0.0012834785 -0.0025836977 0.0019763936 0.0011111606 -0.0021473588 -0.00047205284 0.0004314389 0.0031514182 -0.0006994309 0.0036275894 0.0024831614 -0.003806331 0.0031571875 -0.0017635687 -0.001512223 -0.00020378354 0.00086084247 0.002043547 0.0017711307 -0.0017408505 0.00079527503 -0.0006441574 0.002135895 -0.0024169916 0.0001892839 0.00053707487 0.00083922356 -0.0014456946
untere -0.00083024724 0.0013862221 -0.0024332572 0.0007186815 -0.0027449057 0.0016213822 -0.001059923 -0.0022805377 -4.3887645e-05 0.00083164946 1.7426688e-05 0.0021671616 0.0013838611 -0.0027654099 -0.00059314084 0.0004931178 0.0008973703 -0.0002166599 0.0007837803 0.0011577604 -6.991733e-06 0.00012894534 0.0016325015 -0.00026927175 0.00064075756 0.0013423328 -0.00084655435 -0.002859414 0.0016895593 0.001088267 0.0035452517 -0.0022163705 -0.0014043985 -0.00046640626 0.00045871784 -0.0038521467 0.000668427 0.0016933335 -0.0022205713 0.0026467051 -0.0030459943 0.002121733 0.00025779067 0.0011249356 -0.00021376814 0.0033293397 0.0009516548 -0.0004648883 -0.00031369392 -0.0024622248 -0.0007555412 0.0021979862 0.00048749885 -0.0018354852 -0.00031480595 -0.0013691843 -0.001564996 -0.00029159896 -0.0009459627 0.00035238353 -0.00028629362 0.0025674263 0.00080710836 -0.0022864845 -0.00067695504 0.0021706647 0.0011298397 0.0015414212 -0.0010748816 -0.00042444989 -0.0012184683 -0.00063342927 -0.00060531177 -0.0011548982 -0.002520704 0.003208083 -0.00073162286 0.0002827392 0.0015758782 -0.0003308144 0.0018551052 8.345925e-05 -0.001249399 0.0015211605 0.0009595585 0.0011387715 0.00039547705 0.00018106801 0.0025077846 0.00030334704 -0.0010844688 -0.0008399753 -0.0017010109 -0.0007469754 -0.00016561465 -0.0006043571 -0.0012839012 -0.003242431 0.0021787186 -0.00025652448
21 -0.0043504667 0.002702659 0.00040738005 -0.003521076 0.0015119498 -0.002153804 -0.0005239373 0.0034118472 -0.000196218 0.0022951954 0.000209186 0.0018351907 0.00020829412 0.0015039495 -0.003055653 0.0033784262 0.00339727 0.0015214405 0.004854993 -0.00035115995 -0.0027589388 -0.00079658977 -0.00078880857 -0.0008804924 0.00185153 -0.0076328656 0.0010261938 0.0009382168 -0.001312345 0.0043165786 0.010687192 0.0033189924 -0.004477692 -0.002417064 -0.0041360697 -0.0033808025 -0.00023846468 0.0004538484 0.00082019204 0.0051888647 -0.0034819427 0.0039952593 -0.0035693562 -0.0018716787 -0.003712446 0.0023632147 -0.0013327603 0.0010920763 -0.003916609 0.0003313966 -0.0051391628 -0.0019529111 -0.0030782511 0.0003162548 0.0020823847 -0.0030742122 0.005328055 -0.0014294076 -0.001470699 -0.001460526 -0.0004507979 0.0022471033 0.0012558036 -0.00031514862 0.00074583484 -0.0033037784 0.00595225 -0.0013425051 0.000549922 -0.00013280532 -0.0021726447 -0.0047982363 0.0030039228 -0.0020936395 -0.0033787922 0.00026743836 0.0028586185 -0.00012512738 -0.0038767653 -0.0025654796 -0.0019881215 -0.0023016266 -0.00036238087 0.004513547 0.0010849183 -0.0002371202 0.00023999263 0.0015489303 0.005680003 -0.0048814937 0.003930573 0.0023907267 0.0012229157 -0.0051246164 -0.0037618694 -0.0012278787 0.00037129142 -0.00038378895 -0.003131331 0.0035723182
starts -0.00079183 0.0010628831 -0.003137007 0.00037394455 -0.0008927016 -3.8291735e-05 -0.0012015941 0.0006586446 -0.0016327023 0.00020785595 0.002610754 0.0019124852 0.00058052706 -0.0006368031 -0.0007851456 -0.00090835086 0.0014191456 -0.0012870462 0.0028267999 0.0024777465 0.0025758084 -0.0023828687 -7.067366e-06 -0.001853491 0.00014359858 0.0011076621 0.00069930905 -0.00025527677 0.0011117145 -0.0015907442 0.0026201722 -0.0015822937 -0.0023432442 0.0006810191 0.0006952755 -0.0004001886 -0.0018287227 -0.0010830909 -0.0029672354 -0.0007198214 5.5458815e-05 0.0027113885 -0.00093197747 -0.0010541605 -0.00010990649 0.00094232906 -0.00021399955 0.0002466837 -0.00222102 -0.0002168533 -0.0028476373 0.0030886685 0.001211214 0.0025888407 0.0009477459 -0.0030347693 -0.00022133211 0.0012673726 -0.0004505354 0.0011570706 -0.00052279286 0.0014270311 0.00080798334 -0.002244755 0.0003574659 -0.0013646828 -0.0003712893 0.0035208818 5.1555286e-05 -0.001029031 -0.0013603459 -0.0012673459 -0.0014153159 0.0005409747 -0.0011144767 -0.00069708686 0.0018285305 -0.00055003195 0.0010807626 0.001976042 -7.737477e-06 -0.0013450847 0.0013729489 -0.00023678465 0.001679123 -0.00081306073 -0.00089077133 -0.0025668892 0.0011619697 0.0021426436 0.0021734897 0.0022508388 -0.00041072658 -0.0020083736 9.750707e-05 0.0018553602 -0.000936603 -0.00085762027 0.003417041 0.001309162
moosach 0.00071124407 -0.0002850827 -0.0013090972 0.0015868362 -0.0027264282 -2.5129613e-05 -0.00058682193 0.0016340788 -0.00041223358 -0.00021453756 0.0009982514 0.00024831237 0.00018068604 -0.0007226312 2.35878e-05 -0.0023110434 0.0022773638 -0.0018622665 0.0020242566 0.0020230794 0.0031291668 0.0018191723 -0.0014848171 0.00026738847 0.000326865 -0.00019442331 -8.695239e-05 -0.002208281 0.001420515 -0.00054365763 0.0015545147 0.0019431028 -7.464362e-05 -0.0018831231 -0.0006851182 -0.0012215507 0.0005164308 0.001100194 -0.0018034735 -0.00031810443 -0.00030216316 0.0012176716 -0.0011029663 -0.0004726183 0.00017825866 0.0011619033 -0.0004224168 -0.0010724567 0.0007065392 0.0010932379 0.00016324503 0.002587374 -0.0005731724 -0.00063601905 0.0013750034 -0.00092847383 0.0004789701 -0.0001678847 0.0009441065 -0.0011721791 0.00048553778 0.00052997493 -0.00075060606 -0.00048738095 -0.0025290018 -0.0010694657 0.0006830825 0.0015767135 0.0027713412 -0.00015892072 -0.001636494 -0.0011393464 -5.5543966e-05 -0.0023777094 -0.0003570454 0.00016307444 0.0010978219 -0.00045375622 0.0031649387 -0.0008681569 -0.0014083049 -0.0011652274 0.0011872214 -0.0012528276 0.00028011386 0.0007850549 -0.0022326747 -0.0012831495 0.00090357126 0.001379738 0.00033196164 0.0004317892 -0.0012558169 -0.0025923196 0.0015603804 0.0013848672 0.00026528013 -0.0006127812 0.0019288498 -7.723559e-05
subway 0.0009964039 0.0018340441 -0.0024022055 0.0002268249 0.0006848581 0.0009121433 0.00029746356 0.0012664677 0.00088760274 -0.0011068255 0.0011646389 0.0029157195 0.0006285993 -0.0004038436 0.0007570232 -0.0003537451 -0.00014117807 -0.00021188089 -0.0013893443 -0.00067587796 0.0012305389 0.0013647636 0.0023466388 0.00031122123 -0.0004571463 -0.0018326385 -0.0006586794 -0.0016754413 -0.0017367933 0.0005502451 0.0012212815 -9.799229e-06 -0.00022901373 -0.001593109 -0.0023110965 -0.0016003898 0.0007669266 0.00088088325 -0.0019260714 -0.0009505681 -0.0025171035 0.0004416957 -0.0007794222 -0.00012567008 0.0013896944 0.00087038643 0.00026154253 0.0005306341 -0.0013703324 -0.0011354644 0.00056292117 -0.0007968447 -0.0006004516 0.0022824814 0.00067647203 0.00032772394 -0.00093722675 0.00049942377 -0.000592803 -0.0017409347 0.002031747 -0.0010827926 0.00059467956 -0.0019117789 -0.0001409368 0.00090702175 0.00037511226 0.0007408629 0.0018755578 -0.0015204313 -0.001690452 -0.0004387629 0.0010663496 -0.00052500085 0.00033533975 0.0010874661 0.0014036905 0.0021711073 0.0012189393 0.00045909136 0.0011461779 -0.0016408631 -0.00025198265 0.0010078208 -0.002175873 0.0008080047 -0.0010383339 -0.0018961055 0.0006912929 0.0006138845 -0.0001159409 0.0020379375 0.00055512507 0.0001579379 0.00044475554 -0.0003471269 0.0022894933 -0.00013702677 -0.0014848252 -0.00081491756
mnchner 0.00037790826 0.00017143445 -0.00046259962 0.0006888418 0.0011532257 0.0019133998 -0.00079310517 3.3910255e-05 0.0010679642 0.0009028878 0.0011216621 0.0006444202 -0.000560627 0.0005718025 -0.0011221148 -0.0008284356 -4.759331e-05 0.0026426103 0.000991963 0.00031956946 -0.0008787018 -0.0006958619 -0.000626039 0.00045234893 -0.0011440942 0.000682537 -0.00022625757 0.00039456683 0.0011808759 -0.0021811277 0.00097277196 0.0022387407 -0.0007035391 0.00042840652 0.0010653299 0.0007099938 0.0008069413 -0.00031856034 0.00091294525 0.0008176744 -0.0019979181 0.0021283682 0.000786746 -0.000612737 0.00022135135 0.00010134014 -7.316462e-05 -0.0016790289 8.200943e-06 -0.0010585523 -0.002223336 -0.0016802727 0.0006743015 -0.00038304017 -0.00076154957 0.00036309496 0.0013838687 0.0015064337 0.0010083825 -0.00029793548 -0.0010038887 0.0021480029 -0.00092165417 -0.0019000273 0.00066917326 -0.00061111146 0.002042766 -0.0018527826 -0.0019528543 -0.0003463116 -0.0016015238 0.0008937411 -0.00237314 0.0010028199 -0.0006411894 -0.00015238216 0.00070829643 0.0019843301 0.0007122266 0.00023837248 0.00043862135 0.0004994089 0.0010401243 0.0028611312 0.00045782133 -0.000534707 -0.0008112799 -0.0015329805 -0.0014440395 0.0033885438 0.000260026 0.0009256876 0.00020934321 -0.0025512183 0.00085718103 0.0017042235 -0.00096069404 -0.0016325013 0.0008834696 -0.0002565733
ubahn -0.0031724034 0.001699273 -0.0016763846 0.000450985 -0.0019038917 0.0020071818 -0.0012493037 -0.0020401746 0.00077574985 -0.002892182 -0.0010654129 0.002185501 0.0011331143 -0.0017275275 -0.0017337833 0.0017318693 0.0006947581 -0.0027960548 0.00056963257 -0.0016582685 -0.0023319838 -0.00080417463 -0.0011641224 0.0023059729 0.00022336359 -0.0005007242 -0.00046239936 0.0013416843 -0.00194747 0.0014764621 0.003196071 -0.0009909847 -0.000918134 0.0025337993 0.001401161 -0.0014515511 0.0032838865 0.0026211417 -0.00013200007 -0.00041542214 -0.0034878552 0.00060060737 -0.0032982707 -0.004372445 0.00037163228 0.00091416726 -0.0012782097 -0.0018719976 0.00040345482 0.0011717468 -0.00066657364 0.0015045981 0.00014538309 8.2116885e-06 0.0022904498 -0.003877808 0.0033012123 0.00027304757 0.0023811155 0.0018423336 0.00017756199 0.0015683862 -0.0005497063 -0.0012514767 -0.0005769558 0.0003634136 0.00024449252 -0.0010374124 0.00061075843 -0.0007116443 -0.0006961479 0.0010383041 0.0015151764 0.0010397491 -0.0012045674 0.0018185957 -0.00022282517 -0.001260822 -8.312698e-05 0.0004182533 0.0005583167 0.00086847873 -0.0011723132 0.00021762382 -0.0007195846 -0.0019231964 -0.0015421686 -0.0017364391 0.0012104259 0.0005416967 -0.00052394625 -0.0011543962 0.0018542637 0.00074709783 -0.00086459296 0.0040179123 -0.0018384255 -0.0018774664 0.0010875142 -0.00021709315
kieferngarten -0.0007772604 0.0010064124 -0.0019693496 -0.001322327 -0.0027831304 0.00016121256 -0.0010826621 0.00029678456 -0.00092550943 -5.1270934e-05 0.0005310267 -0.0006554118 -0.0007884919 -0.0010792448 -0.00030715475 0.0004606178 0.00035969555 -6.1613144e-05 0.0012408018 0.0007562168 0.0005147731 -0.00047748635 0.0017858859 -0.00031094562 0.00058895943 0.0009009222 -0.0010347852 -0.00201644 -0.0006570218 0.001018899 0.0001573984 0.0012060101 -0.00014949036 0.0019260889 -0.00018668012 0.0003308416 0.00041104696 -0.0010243462 -0.0007729644 0.00047878068 -0.0010128454 0.001226858 -0.001652303 -0.001148463 -0.00086426584 0.001602395 7.2178686e-05 -0.0009987692 -0.0006325456 -0.0002161919 0.0009306159 0.00082431734 -0.0005214079 -0.00015126352 -0.0005940716 -0.0018931027 -0.0011711875 -0.00057431596 0.0004864379 0.00079184916 -0.00078312686 0.0020399762 0.0006425664 -0.0024979345 0.00043555076 -0.002438536 -8.6047e-05 -0.0004976894 -0.0011959634 -0.00081217906 -0.00088283897 -0.0005687966 -0.0013232679 -0.0010924198 -0.0009358746 0.00017211097 0.0013232764 0.0014283592 -0.0012089857 0.0015932367 0.0004126438 0.00066297397 0.0005001055 -0.00021308634 0.00077626307 -0.0013335567 -0.00021581574 -0.0009422314 0.0014247176 0.00050044886 0.0005546354 0.0003644688 0.0013750397 0.00013454164 -0.00015957795 5.6752084e-05 -0.0019620718 -0.00063694885 0.0031103992 0.0014641864
nordfriedhof -0.0008580504 -0.0005742555 -0.00031334054 -0.0019466178 -0.001331532 0.0026958657 0.00035306517 -0.0003277522 0.00028466963 -0.001091834 -0.0005663135 -0.00057892804 -0.00036706415 -0.00093994784 0.00022721206 -0.00071000913 -0.0002836771 0.00022731931 0.0013938937 5.4000513e-05 0.001211956 0.00032850774 -0.00028008455 -0.0005412921 0.0009693663 -0.0017262407 -0.0009651076 0.0007175668 -7.539106e-05 0.0022411437 0.0018671163 0.0004906246 0.00017615482 2.5739293e-05 -0.00043720636 -0.0003062422 0.00043151667 -0.0015958662 -0.001005559 0.0014704061 -0.000235036 0.00040580946 -0.0003651597 1.2725927e-06 0.00035667897 0.002291131 -0.00017483714 -3.2517648e-05 0.0011411728 -0.00012195882 0.00017940757 0.0009001423 6.835532e-05 0.0008236702 0.00011313629 0.00023404912 0.00062888867 -0.0010479316 0.0009421607 0.0007808459 0.0014654237 -0.0007086774 -0.00080143 -0.0016763108 0.00059600675 -0.00045585216 -0.00094803073 0.000412924 0.0017826085 0.0011232307 0.00057395425 8.734244e-05 2.5331996e-05 -0.00037245973 -0.0013573398 0.0010750347 -0.0008636053 -0.0006091566 -0.00063922274 0.00037528147 0.0009292409 0.00031113112 0.0019932895 0.00032852442 0.0015863408 -0.0011626406 -0.00045539625 -0.0007797978 0.0007892157 0.00075672776 -4.6674337e-05 0.0007724038 -0.00037867195 -0.0007031126 -0.0020705587 0.0013262483 0.0014841574 -0.0006632483 0.0008573946 -0.000908409
way 0.0040002754 0.0020299514 -0.0027966925 -0.003263794 -0.0016570168 0.0037720294 -0.004429439 0.0033444997 0.0024975634 -0.0004344858 0.001216749 0.0045213327 -0.00085718225 -0.0032739628 -0.00064792245 -0.00019825257 -0.001341941 0.0027891437 0.0009332012 0.002230083 -0.00086363795 0.0010083948 -0.00067718036 -0.000772411 -0.0002950164 -0.0030610398 -0.0002729036 0.0024811926 -4.5121316e-05 0.0009875206 0.0039319857 -0.0006096895 -0.0010987222 -0.0012867048 0.0049631004 -0.002542761 -0.0015906122 -0.003163626 -0.0008118385 -0.00035438783 -0.0023447468 0.0018205593 -0.0030548961 -0.0009329203 -0.0004984185 -0.0005556759 0.0020364542 0.001940164 0.0022771477 0.0013956827 0.0023255798 0.0065318984 -0.0015381506 0.00112186 -0.0014762578 0.0007595475 -0.001250285 -0.0009603612 0.0028846324 -0.00082967523 0.0025357709 0.0009181375 0.0007131081 -0.0040203147 -0.004183545 0.00056610396 0.00068934803 0.00042499558 0.00087265804 0.00029612405 0.00022605395 -0.00024988037 0.00019929871 0.0015790528 -0.0030567232 -0.0016347227 0.0014780039 0.00026980718 0.00035445028 -0.00046138914 0.0020651512 0.0011717548 -0.0013391327 -0.00069639884 -0.0032133625 -0.0011678789 0.003181674 -0.0019159891 -0.000932729 -0.0016809435 -0.0016493263 -0.000110225184 0.00077449146 0.001057576 -0.0024712998 0.0019136348 0.0029685355 -0.00353029 -0.00036281272 0.00081935566
neuperlach -5.4044063e-05 0.0001610318 -0.0014491733 0.0009248876 -0.0011731291 -0.0004298901 -0.0016440569 0.00022986095 -0.0002811251 -0.000500864 0.0012286501 0.0007752247 0.00041489798 -0.0001267197 -0.0025901592 0.00046095476 0.0015555328 -0.00042140033 0.00013183084 0.00096065755 0.0012702068 -0.0001361612 0.00055617647 -0.0016577588 0.0004143032 0.0005497857 0.0016355986 -0.0010528289 0.0011873753 0.00081293634 0.00093663327 0.00027070215 -0.0025151244 0.0006667288 2.7751796e-05 -0.00055686134 -0.0019183097 -0.0028178738 -0.0005794158 0.0028089513 -0.0013827882 0.0011340936 -0.0014945172 -0.0025023723 -0.00042147166 0.00042331053 -0.0013934396 -0.0009005843 0.00032261637 1.4769645e-06 0.0006249738 0.00041513168 -0.00014842786 -0.0012536135 -0.00039429223 -0.002506162 0.0009055776 -0.00015078334 0.0007791153 0.00039431083 0.000744642 0.0008596885 0.0017927926 -0.0007175861 -0.0022518828 -0.0006021922 -0.0011757807 0.00061714655 0.0013473679 -0.0006527038 0.0005267721 0.00029306117 -0.0014881692 -0.0016057 -0.0022616936 0.00110092 -0.0010039633 -0.0006378143 -5.929723e-05 -0.0006218719 -0.0009964746 -0.0012754333 -0.0007024791 0.00065189815 0.0040638363 0.00031961445 -0.0004567816 -0.0010765662 0.0006986475 0.0011494211 -0.000967296 -0.0015629717 -0.0012566939 -0.0002139299 0.0008285668 0.0023781355 -0.00014452968 0.00028395618 -0.0007929232 0.0017903753
departs 3.915007e-06 -3.1543266e-05 -0.0038000843 0.0010006812 -0.0004260229 0.00033791474 -0.0007845354 0.0007582712 0.0015906746 0.0011367226 -0.00082079007 0.0009658564 -0.0011728279 -0.0028849957 -0.00077627396 0.00013550333 0.0011041124 -0.00069125724 0.0013450426 0.00034940284 0.0033371416 -0.00018076424 0.0010675014 0.0001806088 -0.0016060384 -0.0005302824 -0.0008866391 -0.0012673743 -0.00011563661 -0.00015151825 0.0008364562 -2.6130918e-05 -0.0007079566 -0.00084451714 0.0013267312 -0.00095408334 -0.0018455854 -0.0018737818 -0.0007170998 0.00053793116 -0.0022889085 0.0019494094 -0.001131054 -0.00042092783 -0.0007444038 0.0015357195 -0.0003527672 0.00038317364 -0.000876858 0.0011825772 0.00036378222 0.0010757297 -0.00025062606 -0.0015390666 0.0014750216 -0.00213249 -0.0007446094 -0.00020687278 0.0017178898 0.00026084873 -0.00042092055 0.0022507773 -0.00037368084 -0.0004023927 -0.0025164923 -0.00021781735 0.00048831356 0.0017106715 -0.0017175825 -0.0014409741 -0.0011560277 -0.0005821828 -0.00032898886 -0.00041342303 -0.001480873 0.001855577 0.0014046427 0.0012024932 0.0021237172 0.00087476603 0.00231209 -0.0018182342 0.0009560144 -7.9381316e-05 0.0040392512 -0.0007824784 0.001383119 -0.0017186945 0.0016190175 0.0021159432 -0.00051137514 0.00027993074 -0.00012491425 -0.0007843385 0.00012266924 0.0030539017 0.00044689846 -0.0013660897 0.0020152782 -0.001652835
want -0.00080685096 -0.0016767586 -0.0011944928 0.0002768229 0.0020232368 0.0014441594 -0.00063113647 -0.0030143482 -0.00050176657 -0.0033988492 0.0031267249 0.0011017971 0.0007866088 -0.0014525614 -0.0022805408 -0.0011751852 0.0014137796 -0.001558502 0.0010330235 0.00092646346 0.0019773664 -0.0038803278 -0.0028910541 0.00066991063 -0.0025330044 -0.0014873367 0.001155942 -0.00021235323 0.0010020955 0.0026820812 0.0016510949 -0.002866994 -0.00084870175 -0.0021152548 0.00097537565 0.0023528242 -0.00015305974 -0.0016305129 0.0025968233 -0.0003426358 0.00034912268 -0.004138664 -0.0037540921 0.000902923 0.001706985 0.00017798552 0.00015984314 -0.0015286363 5.3913376e-05 -0.0018193041 5.5471013e-05 0.0026356725 0.00077515375 0.0011420506 0.000109476416 0.00037475937 -0.0010679463 0.0008760022 -0.001638764 -0.0011309278 -0.00077517494 0.0012290888 -0.0019152967 -0.0025404461 0.0030009483 0.00020319223 -0.00033365385 -0.00033836745 -0.0019936447 -0.0015497394 -0.0011917445 -0.0010422864 -4.5387602e-05 -0.0018411875 0.00019647932 0.0023780446 -0.000259995 0.004662461 -0.0010936985 -0.005220878 0.0030646152 0.00023723584 0.0012800856 0.0013705153 -0.0003119272 0.00015136012 -0.0018631208 -0.0021817738 0.0010445374 0.002336414 -0.0019050661 -0.0013566416 -0.00077648385 -0.0008310806 -0.0016279164 5.841687e-05 0.0019666369 0.00031915418 0.0014200938 -0.00064010255
go 0.0018847783 0.0023387678 -0.000609426 -0.00591536 -1.7796585e-05 -0.0029129065 -0.00049012864 0.003136325 -0.005377988 0.006067976 -0.00015247962 0.001954643 -0.001946642 0.0008244456 0.002714523 0.0021711597 0.00019186782 0.0045018266 0.0035155201 0.0020402148 0.00054307585 0.0006212492 0.0007741221 -0.0033731852 0.0023505935 -0.0019289837 0.0015395624 -0.0017007374 0.002398531 -0.00074228854 0.0010967952 -0.0038340911 -0.0023415624 -0.0037225313 -0.0029385414 0.0037217825 0.0036418098 0.0007564266 -0.001668179 -0.002675098 -0.0008991279 -0.0017883602 0.0005775596 -0.0034069428 -0.004351492 0.001834899 -0.004979704 -0.0026223818 -0.0005047539 -0.0018115626 0.0009560946 0.002374913 0.0002503479 -0.0033793142 -0.00052915467 0.00079717493 -0.0017041859 -0.0017657084 0.0017413424 0.0018129827 -0.002251756 0.0017584327 0.00067184994 -0.003682194 -0.0013640292 -0.00017106804 0.002369707 -0.0014625059 0.00012913579 -0.0028587584 -0.00085853785 0.0013151796 -0.001672736 -0.0015805357 0.005961762 0.0029210956 -0.0020819379 -0.0026802404 0.0032680891 -0.00031561195 -0.0003762507 0.001246212 0.00046858506 -0.0031307226 -0.0035889149 -0.00048152218 -0.0051959483 -0.0011271345 0.007209654 -0.0017168204 0.0014266409 0.0027818906 0.00090139033 0.0006827336 0.0018032903 -0.0009804359 0.0023450227 0.0011471312 0.0010692831 4.0904037e-05
kurteisnerstrae -0.0004637094 -0.0001479352 -0.0029000593 -0.0009668272 -0.0011622146 -0.00015465973 -0.0011689116 0.00045626855 -8.756745e-05 0.0002098184 0.0017520705 0.0009295916 0.00020092861 0.00095703616 -0.00070319866 -0.0008650464 0.0036075811 -0.0009698651 0.0020448505 -0.0014378574 0.0009869877 -0.0013529912 -0.0013754229 -0.0020981154 -0.0003378697 -0.00026104503 0.00060484477 0.00041816648 0.0007734754 -0.0005552373 0.002348166 0.00029629262 -0.0016604809 0.00022737402 0.0006322758 0.00047565048 -0.00012524893 0.0010310067 -0.001200993 0.0020063191 -0.0014639887 0.00072672067 -0.0016466012 -0.00022354441 -0.0011201026 0.00088283705 0.00075160083 -8.964676e-05 -0.00010495968 -0.0006321706 -9.862169e-05 0.0006566284 0.00017648695 -0.00041947537 -0.000710675 0.0008214595 0.00026279228 -0.0010407438 0.0010777703 -0.0009927809 0.00044120965 -0.00021429049 0.0002780599 -0.001567287 -0.00021429571 -0.0008422628 -0.00030724067 0.000510945 -0.00047348894 -8.6206324e-05 0.0004783659 -0.0017399989 0.0005245418 -0.0005204296 0.0015564046 0.0015362215 -0.0007571832 -1.825811e-05 0.0011147015 4.2852997e-05 0.00072317524 -0.0011534955 0.0023580445 -0.00095636514 0.0013378599 -0.0011625052 0.0021745493 -9.468846e-05 0.00130154 0.0006233325 -0.00018207109 -0.00095396914 -0.00046475427 -0.0016133151 -0.0014155739 -3.274073e-06 -0.0005361963 -0.0020713145 0.0013530353 -0.0013023872
whats 0.0009798646 0.0024144687 -0.0005177554 0.00061846414 0.0022003008 -0.000249808 -0.0033720308 -0.0016624673 0.0014947717 0.003282272 0.0008715938 -0.0009162765 -0.0006939659 -0.0012809347 -0.0014174343 -0.0006839667 0.002144941 0.0034676844 0.0036589531 0.0015685117 0.0014232198 -0.0003771225 -0.0010661443 -0.00030594395 -0.0021038793 -0.0027163778 -0.00091952196 -0.002192505 0.0023715307 -0.0024566033 0.0009707895 0.0004095257 -0.0019661828 -0.00013720107 -0.0002234316 -0.0006945137 -0.00010758868 0.00013806454 -0.0002491679 0.0015885598 -0.0008550213 0.001269153 -0.0015740951 0.0022288158 -1.39787635e-05 0.0019397475 0.0016396769 -0.0016061442 0.0004944951 0.0010146367 0.0012593307 0.00031578727 -0.0028446922 -0.0033603385 -0.0006827917 1.5482927e-05 4.031978e-05 0.0016487773 -0.00075139274 0.0005303213 -0.0008720277 0.0017656463 -0.00070305465 -0.0023250324 -0.0012184039 0.0026013942 -0.00016073411 0.001386501 -0.0014575796 -0.0021836436 -0.0019282703 0.00047522385 -0.000417597 0.00023322798 -0.00076093216 0.0017351193 -0.002560113 -0.0020138982 0.0020271137 -0.0004437441 0.00020417664 0.0021373508 0.0004776791 0.00029740843 0.00051264215 -0.0019036199 0.0015836087 0.0003708124 -0.0007546635 5.817188e-06 -0.0005820499 -0.000437217 0.0012667298 -0.0008634013 -0.00033792807 0.00025866224 0.00068759784 -0.0027561262 0.0031342795 0.0004976858
shortest -0.0025108387 -7.771502e-05 -0.0026261306 0.0015358449 -0.001315123 -0.0009294835 -0.00078942406 -0.002850624 0.0027596804 0.002171249 0.0017921469 0.00046244144 -0.00019566975 0.0016892941 0.00024043875 0.0008091289 0.0018652983 0.002753256 9.667295e-05 0.0017819161 0.0015390194 0.00055597274 0.001953173 0.0007474122 0.00049844716 0.00027807528 -0.00087270973 0.00047028213 0.0012415884 0.0022314677 0.0021787174 -0.00014943129 -0.0010755763 -0.00033837755 0.0010044334 -0.0010488081 8.630478e-05 0.00014796824 -0.0012652449 0.0034603658 -0.0013518167 0.0036240537 -0.0015691149 -0.0010792842 -0.0010034823 -0.000336287 0.0020292143 -0.0009183135 7.463959e-05 -0.00013618273 -0.001277137 8.8889945e-05 -0.00036862926 -0.0014398305 0.0013613182 -0.00042602036 -0.0015495203 0.00026976652 0.00094208465 0.0006153156 0.000724182 0.00030731218 0.00218549 -0.0019403286 -0.00031484565 0.00084500905 0.00087850133 0.0005986193 -0.0002966925 0.00021256068 -0.00036683655 -0.0015369622 -0.0021391853 -0.00081839866 -0.00041466657 0.0014018834 0.003241298 0.0027857998 0.00014103173 0.0026566072 0.00035929686 -0.0013081921 -0.00015924481 -0.0009608447 0.00025414364 0.0010065283 0.00024571022 -0.0012746901 0.00012450303 -0.00019079621 -0.002197326 -0.001045918 0.0010250197 -0.0010248541 0.0006652933 0.0012038238 -0.00047722465 -0.0029448345 0.00016212657 0.0004705258
prinzregentenplatz -0.0005474091 0.001667169 -0.0008100728 0.00082944095 -0.0012271061 0.0015883181 -0.0015583617 -0.0001932378 0.0011533648 0.0011700293 -0.00025359826 0.0002534059 -9.992743e-05 -0.0006077632 -0.0010934027 -0.000443567 0.000103977014 0.00064509956 -0.00039013082 0.0010278509 0.0013085076 -0.001173883 0.00049725507 -0.00027163222 0.0011260795 0.00045413856 0.0005871598 0.00011132761 0.0016138591 -0.00044931972 0.0021995502 -0.0005677209 -0.0010989883 -0.00015270869 -0.00010233976 0.0009203876 -0.00011093564 9.414708e-05 -0.0011547023 0.0007598403 -0.0016193283 -0.00023250477 0.00028828817 -0.0013965584 0.00041345836 0.0022022652 -0.00016747606 -0.0010476626 -0.0006445125 -0.0001888153 -0.0013035127 0.001539855 -0.0006480832 0.00010315616 0.0001888317 -0.00080647075 2.7668399e-05 -0.0007295792 0.0013042524 0.0004829041 0.00072047405 0.001207218 7.283062e-05 -0.0018093599 0.00062264723 -2.8639608e-05 -0.00049451296 0.00018673827 7.1184026e-05 0.0009348747 0.0003234469 -0.0016078207 0.00018345453 -0.00048334364 0.0001356369 0.0029444045 0.00082526397 0.00030111225 0.00036190226 0.0015605978 -0.00035584625 6.0643193e-05 0.0002970778 0.0008130972 0.00030365365 -9.945492e-05 0.0005802154 -0.0006532824 0.0011741824 0.0011436848 -0.0004411356 0.0004916028 -0.0010098964 -0.00084935536 -0.0008826366 0.0015959566 -0.00093555514 -0.00036882405 0.0013126265 -0.00068753836
depart 0.00063322904 0.0012521624 -0.003391327 0.002142285 -0.0013488746 -0.00017479043 0.00065099145 -0.00041554845 0.0033996415 -0.002338104 -0.00044634016 0.0016207021 -0.0017558056 -0.0027699077 -0.001357795 -9.252236e-05 -7.9490885e-05 -0.000350854 0.00035566592 0.0006401707 0.0032354333 -0.0001951312 0.0023724611 -0.00010959897 -0.0018009869 -0.0015849085 -0.0021966554 0.00080541894 -0.0010415373 -0.0014750257 0.0006722047 -0.0019645924 -0.00081508193 -0.0003354967 6.534444e-05 -0.00078275456 -0.0014144105 0.00083332154 -0.0002527913 0.0015940139 -0.0019203218 0.0020297428 -0.001895894 -0.0012806242 -0.0013809681 0.0014659335 -0.00082342484 -0.00047086846 0.0007148213 0.0010866431 0.0011313411 0.0016107275 -0.002421649 -0.0030936862 0.0014542702 -0.0014510835 -0.0015453455 0.0012450144 0.0036139924 0.0013214252 0.00084216875 0.002101608 -0.0024651852 -6.368493e-05 -0.0041030166 0.0009336051 0.00071852753 0.0016800785 -0.0017911588 -0.0006302975 -0.0023925172 -0.00047239818 -0.0016914703 -6.0744485e-05 -0.0036562136 0.0011400345 0.0021089488 0.0007969648 0.0027659081 0.0019743666 0.0013817823 -0.0026007635 0.0005491693 0.00047585554 0.0030841404 -0.0003519017 0.00214244 -0.0009319487 0.0015943792 0.0008343127 -0.00042127495 0.0017242732 -0.0001530088 -0.00014685748 0.0006972693 0.00357891 -7.1945587e-06 -0.00039294246 0.0018061668 -0.00043090782
between -0.00081995834 -0.00014686082 -0.0024880925 0.0005254942 -0.00082455884 -0.00019900769 1.8791255e-06 0.0003004803 -0.0004170652 -0.00037274937 -0.0008335501 0.0005672837 0.0003695095 -0.0023845288 -0.0025441404 -8.494983e-05 -0.00021870575 0.0002747537 -0.0011196675 0.0031511586 0.00032011987 -0.0011977364 0.00081641786 -0.00025096798 0.00045222128 -0.002319152 0.0005686331 -0.0013062858 -0.00048051288 0.00092552067 0.0014445459 -0.0004097418 -0.00237543 0.00096391514 0.0018313125 -0.000857603 0.0022226693 0.00083129416 -0.0022476898 0.00031533156 -0.0036803528 0.0025568858 -0.0026509396 -8.1661e-05 0.0021460021 0.0018105673 -0.0002013817 -0.0032179572 3.4135275e-05 -0.00013739761 0.0014371487 -0.00067198335 0.00071130984 5.4474218e-05 0.0011267688 0.00028335713 0.0003548369 0.0013237629 -7.550496e-05 -0.0007779659 -0.0021014968 0.002667807 0.00044984388 -0.0016844025 -0.00022339274 -0.0016014377 -0.0004860606 -0.00055433175 0.00069254945 0.00026531168 -0.002144384 -0.0033457056 -0.0014760284 0.00054115016 -0.00019025778 0.0035847358 -0.0013666922 0.0020491274 -0.0006954113 0.0025428447 0.0018309109 -0.00070379174 0.0014763774 -0.0012510532 4.5394827e-05 -0.0006774932 -1.6836287e-06 -0.0015452661 0.0010461939 0.0016358971 0.0005441832 0.0014125414 -0.00017296197 -0.002067439 0.0006764996 0.0020421245 -0.0017846689 -0.002827425 0.004784452 8.349852e-05
and 0.0014819868 0.0029270553 -0.006724117 0.0016188758 0.0011759374 -0.0001979558 -0.0026309036 -0.001697182 -0.00029882303 0.004145035 -0.0001333142 -0.0011265762 -0.0017530014 -0.001239712 -0.0006772652 0.002958355 -0.000934167 -0.0013737091 -0.0011674309 -0.0004992279 -0.0023839294 8.5067e-06 0.00011108789 0.0011503517 -0.0021076465 -0.0013677217 -0.0010875076 -0.001888083 -0.0016245275 0.0030413228 0.0023444851 0.0035114598 -0.002222393 -0.0012460825 -0.00081229146 -0.0013056385 -0.0029904179 -0.0031002315 -0.0007842313 0.00043143984 -0.0016830042 0.0036030295 -0.0020853062 -0.0036772394 0.0021924186 0.00038468567 -0.0018051626 -0.0011846793 -0.00077225297 0.0029642717 -0.0011954954 -0.0028302432 -4.5663444e-05 -0.003487565 0.00045169098 -0.00030288013 -0.0015513472 -0.0005626781 -0.0021711248 -0.00024375299 -0.0008035089 0.00060561375 0.0016865339 -0.00027995204 0.0011553299 -0.0006229022 -0.0021738834 0.001167677 0.0026550281 -0.0021953492 -0.00074303715 -0.0024486384 -0.0017352559 -0.0010915019 -0.0017473439 0.0030368394 0.0023664231 0.0005101553 0.000594363 0.0021304719 0.0026161224 -0.0038482468 -0.00064276066 -0.00057133724 0.0015326177 -0.002567495 9.1293696e-05 0.003148435 0.004390194 0.0036152585 0.0018491196 0.0022206882 0.0010976874 -0.001109646 0.00088390167 -0.004086913 -0.0013098487 -0.0008956548 -0.00023251785 0.0031727997
as 0.0002513724 0.0046654595 -0.00036898756 2.7304748e-05 -0.0016367683 0.0028289596 -0.0025084629 0.00062623655 0.00026353693 0.0017626942 0.0032019806 0.0030235292 -0.0018098673 -0.0015390106 0.0016081912 -0.0026331702 0.0017373699 0.0021994582 -0.003644264 -0.001855124 0.0007292946 -0.0023184991 0.005328066 0.0019177664 -0.0025627534 0.00060181285 0.0042568585 0.0035971904 0.0046806536 -0.0008583913 -0.0018411719 0.002151817 -0.001863457 0.0032133202 0.002316478 -0.0036101893 -0.0012595038 -0.0013447129 -0.00029853568 -0.0021292157 -0.0026448518 -0.0027820792 0.0027523523 0.0005811129 7.066224e-05 0.0022156406 0.0007965955 -0.0053440193 -0.0027132125 0.0021509556 -0.0057275016 0.004590691 -0.002259389 0.0013763353 0.003307578 0.0070248134 -0.0026306314 0.0028641466 0.004834504 0.003984756 -0.005264971 0.00093434844 0.0009106338 0.0033379574 0.0021176091 -0.0018899839 0.004526953 0.006650726 0.003286656 0.00011682417 -0.0029234437 0.0009758298 0.0027822412 0.0023834244 -0.0022561774 0.0033859382 0.002915782 0.0020474433 -0.0041000172 0.00017191283 -0.00026125181 -0.0043066465 0.004755389 -0.0022832314 0.001006258 -0.0006216628 -0.0029826483 -0.0058530103 0.0053119147 8.763146e-05 -0.0014302441 0.0028361396 -0.0015680044 0.00022915797 -0.0015493267 0.0034460896 0.0007476503 -0.003134056 -0.004392089 0.0038517057
lehel 0.00058510416 -0.00034617024 -0.0013564879 5.3435695e-05 0.0017163543 0.0004576496 -0.0027161979 -0.0014883347 0.0005388224 -0.00023359929 0.00440731 0.0013908121 -0.000390929 -0.00035439816 -0.00069819245 0.0011985389 -0.0002815035 0.0010699634 0.0015893483 0.00027729518 0.0012750309 0.0005831175 0.00010718514 0.0017503005 0.00091137004 -0.0012238789 0.0012025585 0.0016846895 -0.0009579297 7.4895346e-05 0.0029240681 0.0006450005 -0.0009285538 0.00086080213 0.0009696715 -0.00053947535 -0.00014351895 -0.0007608849 0.002819463 0.0013995456 -8.72309e-05 0.0025941166 -0.0015609225 -0.0023199648 -0.003439293 0.0015542055 -0.0007711167 -0.0017301321 -0.0033028494 0.00030432787 -0.002061183 -0.00067953125 -0.0011991718 -0.0009501706 -2.5980826e-05 -0.0030896242 0.0013932 -0.0011071209 -0.00033535116 0.0031046374 0.0005333523 0.002035961 -0.00022569466 -0.0033321648 -0.0004360693 -0.002548104 0.0031148088 0.00082848617 -0.0021096438 0.0011496353 -0.00014213976 -0.0010584756 8.226679e-05 -0.001777246 0.00031797212 0.00010390617 0.00058607216 0.0013385438 0.002145383 -0.00018622172 -0.0006196032 -0.0009895271 -0.0010317166 -0.00017760204 0.0015027808 8.763985e-05 -0.0013597899 -0.0011557088 0.0015063309 -0.00093478186 0.00091248675 -0.0019354268 0.0020983252 -0.00017434657 0.002766745 0.0021277408 0.0010694254 -0.0010362228 -0.00027269032 0.00013344843
there -0.002296873 0.0026402073 -0.002911353 0.0034940972 -0.005011538 0.00021850038 -0.00060891925 -0.00010327029 0.00029061627 0.0023314145 0.0018536496 -0.0014413262 -0.0012578149 -0.00031650532 0.0011392256 -0.00091334985 0.0013714726 0.002176302 0.0009058174 0.000780498 0.0031923368 -0.00087568647 0.0013020716 0.0008746124 0.0010543253 -0.00044963497 0.0039607724 -0.0033346792 0.00026151552 0.0017102488 0.0051116114 0.00081289187 -0.003711118 -0.0009256779 -0.0018975133 0.00044106346 -0.0012635106 0.000869545 0.00068418024 0.0016969378 -0.002381434 0.0009790285 -0.0008771014 -0.0012272693 -0.0009224847 0.0031315791 -0.00071969983 -0.0023295577 -0.0022507159 -0.0016384566 0.00027656442 0.0028853188 -0.00343981 0.0007014667 -0.00015657309 0.0018777301 0.00033198882 -0.00054821494 -0.0028672526 0.0039019499 0.000122067766 0.0009223968 0.0016025533 -0.0025815642 -0.001749844 0.00034043193 -0.00021587362 0.0018457886 -0.0010541846 -0.0020616371 -0.0019528518 -0.0031680544 -0.0019139388 -0.0023827995 -0.0033779398 0.0022526963 -0.00017387218 0.002336104 0.0008622722 0.0016447374 0.0023112511 0.00029469206 -0.001533977 0.002714109 0.00010594127 -0.0035001093 -0.00057898223 -0.00079105474 0.0026682655 0.0026801822 -0.0016606417 0.0005098026 -0.0023116753 -0.0015450966 0.0022351074 -0.0006320048 -0.0007417625 0.000744901 0.0013361521 -0.0007070377
pm 0.003402362 0.0017236406 -0.0017542697 0.000196449 0.0005896667 -0.001007391 -0.0034894247 -0.0041614044 0.00041728752 0.0074650683 0.00077770767 0.0040349453 0.005673085 -0.0039484105 0.0013325715 0.0015219265 1.9900384e-05 -0.0011239138 0.0016754321 -0.0003989311 -0.0007934193 -0.0010553522 -0.0010473349 0.003243552 0.00034701917 -0.001706711 0.0015453204 8.8805566e-05 0.002599899 0.004132393 -0.00088869 -1.3472163e-06 -0.00075984816 -0.0029137218 0.00076469406 0.0007542604 0.0021717816 -0.0030090576 -0.0018047969 0.0007417802 -0.0015194057 0.0015270856 -0.0003488147 -0.0016048559 0.002413649 0.00081541727 -0.0010576275 -0.00051408866 0.000575793 0.0012265487 -0.00032883068 0.005774741 0.0030332773 -1.9614352e-05 -0.0021018514 -0.001325934 -0.005703449 4.451454e-05 0.00012983999 0.0011326903 -0.005513654 0.0021210122 0.006858997 -0.0054446934 0.004741038 -0.00014665014 0.0032738056 -0.0007053537 -0.004483565 -0.0014541356 0.0022037234 -0.00095401076 0.0019098636 -0.002988341 -0.001996247 0.004981504 0.0011170168 -0.0016589013 0.0019475474 0.004495076 0.0005810051 0.0036033532 4.6337722e-05 -0.0022128064 0.0032533947 -0.0021834644 0.0011983708 -0.004067429 -0.0022748602 -0.0011507315 0.004056384 -0.002001931 0.00037585327 -0.0006010282 0.005080218 -0.001136524 -0.0005160973 -0.0022787782 -0.0036400156 -0.0038541488
12 -0.0040792986 0.000533873 -0.0025678761 -0.002848573 0.0032884642 -0.0035899878 0.0019889602 -0.0005289122 0.0011212985 -0.0032591086 -0.00037095346 0.0027497308 -0.0039834147 0.0015481208 -0.0058983676 0.0011166868 0.00079464854 0.0049849753 0.0023267698 -0.0008585004 0.0004521144 0.0059185745 0.00011644815 0.0029596034 0.001212287 0.00013556192 -0.0012102947 0.0014067582 -0.00048460648 0.0029223454 -0.0002195028 0.00059375225 -0.0040115905 0.0022253331 0.0011145987 -0.0021635187 -0.0050623743 -0.001975473 -0.0012265954 0.0015393735 0.0042564254 -0.0002560027 -0.004981859 3.762034e-05 -0.0031084712 -0.0014136184 0.0048315986 0.0043476317 -0.0013932876 -0.00046386803 -0.00096197834 -0.0014548276 -0.0022745647 0.0016388979 -0.0034552799 -0.0042211236 -0.0044517503 -0.0028725425 -0.0022959583 -0.0024082654 -0.00019515073 0.00093451067 0.0048934985 -0.003966545 -0.001512292 0.002373537 -0.0020841616 0.0037867893 -0.0005811384 -0.0004709453 0.004205381 -0.0018004661 -0.0024485067 -0.0045248484 0.0026965998 3.504171e-05 0.003062292 0.0031305556 -0.0030163906 0.0030829473 -0.0012697056 0.0043156333 -0.0014018756 -0.0014487534 0.0024216538 -0.0011245754 -4.936487e-05 -0.0021568215 0.0003198437 0.0018571392 0.0021077846 0.0020005256 0.0006510446 0.001306466 -0.001602906 -0.0009885856 -0.0042866473 -0.00075771287 0.002907768 -0.0015272014
boltzmannstrae -0.001439858 -0.00015012488 -0.0028469842 0.0005236191 -0.0020762964 0.00017839936 -2.480701e-06 -0.001125263 0.0013839363 -0.0009772594 -0.00024742083 -0.0003610821 -0.0003083191 -0.0005293838 -0.0015799982 0.0013798109 0.001168721 1.3827972e-06 -0.00012332518 -0.00019866579 -0.00045020145 -0.00025364012 -0.00022960002 -0.0010680712 0.00041876695 -0.0011780361 8.226774e-07 -0.00038740836 0.001307587 -0.00025531845 0.0023298562 -0.0009845815 -0.0017203151 0.0011953913 0.00086450577 -0.0010934938 0.00048745208 0.0017033777 -0.0027481408 0.0029776152 -0.0013070159 -0.00047026985 -0.0013741544 -0.0011121724 -0.0006437911 0.0013219512 0.0003232671 0.00018481589 0.0020354595 -0.0018817628 -0.0009837669 0.0004826649 -0.0006200636 -0.0017659379 3.4407255e-06 -0.00027334012 5.3728695e-07 -0.0015955413 0.0015021564 0.00047502463 -2.8452543e-05 0.000544065 -0.00042968633 -0.0017661583 -0.0014917167 1.4824227e-05 -0.001369107 0.00011968175 0.00023766622 -0.0012899643 0.00066252303 -0.0014647743 -0.00028649502 -0.0005851792 -0.0006725031 0.0014283004 -0.0004353386 6.3320746e-05 0.00040963822 0.0015118894 -0.00072042097 -0.0011542604 0.001525959 0.00034155324 0.00067266804 -0.0015562329 0.0008183442 -0.0010283286 0.0023189278 0.0017234178 -0.00035759222 -0.0011182218 -0.000119040684 -0.00094719377 0.0014204938 0.00043259058 -0.0004700561 -0.0013653794 0.0010465276 0.00043366506
poccistrae -0.002677047 -0.00015044313 -0.0021687734 0.00076452614 -0.0013834011 -9.3033006e-05 -0.0006528934 -0.0020326339 0.0012379745 -5.61972e-06 0.0007695875 -0.00047196916 -0.0006191642 -5.4231048e-05 -0.0025720478 -0.00096803426 0.0026429954 0.0011474645 0.00059896463 0.0018951863 0.0012135473 -0.00017550042 -0.00015397627 -0.00051349535 6.207809e-05 -0.001577648 0.0019697275 -0.0014293748 0.00043230716 -0.00095494156 0.0016652565 -0.0006090173 -0.001831259 0.00021374397 -0.0005036787 -0.0005352005 -0.00029634958 0.00090547727 -0.0032161628 0.002345668 -0.0028030684 3.6276106e-05 -0.00031714313 -0.0014417584 0.0010929402 -0.00022364254 -0.0004848376 -0.0014911154 0.0013411716 -0.00033394466 -0.0032696538 0.0020290774 0.00030997166 0.0005750419 -0.0002804443 -0.00026229152 -0.0014347748 -0.0015857997 0.0028250024 0.00034843886 -0.00018997001 0.0020834582 -0.00094332005 -0.0021111446 -0.000104355466 -0.00079558074 -0.00085776875 0.00045725517 -0.0006334594 -0.00074627006 0.001254315 -0.0030458663 -0.0001523148 2.7122063e-05 0.0015586814 -0.00014280161 0.000807312 0.0012736316 0.0011031751 0.0018489728 0.0018603535 -0.0010249058 0.0032925273 0.00016339705 -0.00033332437 -0.001436357 0.001404341 -2.440153e-05 0.0017446385 0.0006302627 -0.0016246063 -0.0004701518 -0.0016168045 -0.0009023786 0.00051326654 0.0002234316 -0.00045039298 -0.0016185391 0.0021540422 0.0014838626
neufahrn -0.0005652703 -0.00060005946 -0.0019152443 0.00043704384 -0.0011463964 0.0008269032 0.0017518578 -0.0012665427 -0.00031538785 0.0007343436 0.00047301792 0.0011119486 -0.0008025754 -0.0015053885 0.00023570604 -7.474385e-05 0.0017985281 0.0002893412 0.0005206637 -6.7192355e-05 -0.00034810588 -0.00025988085 6.944613e-05 -0.00038766026 -0.00024820954 -0.002105969 0.0007660889 -0.00012779843 0.0018675358 -0.0018115246 0.0011324834 0.00022952243 -0.0007861626 -0.00031081936 0.000687398 -0.0010361297 -0.0006215843 -7.7913995e-05 -0.0013193297 -0.0006856881 -0.0007118985 0.0009500037 0.0011626675 0.001283943 -0.0007041911 0.000734253 -0.0022997558 -0.00016732555 9.301476e-05 -0.00035927285 0.0011995371 0.0010105764 -0.0008248804 0.00015949582 -0.0012145936 0.0009497495 0.00079675915 0.001182867 0.00086473726 0.0006452336 0.00011644553 -0.0011250547 0.0013091308 -0.0004528307 0.00039086005 -0.0013212101 -0.00072238373 -0.00025148445 5.6712164e-05 -0.00033382495 0.00010763915 0.0003388416 -0.0026363358 -8.421712e-05 -0.00024067891 0.0017894177 -0.000900869 0.0009980222 -2.277577e-05 0.001610395 -0.0020340837 0.0009711455 0.0012661024 0.00064727635 0.0013265441 0.0003131302 0.0010335397 -0.00020395381 0.0021527172 0.0009778845 -0.00048418122 4.010182e-05 1.9509835e-05 0.0006784286 -0.0006019931 0.00057360186 0.00038023002 -0.001030908 -0.0012498335 0.00021863986
alte 0.0023129089 -0.0022935092 -0.0026769277 2.4001834e-05 0.0003774511 -0.0030017942 -0.00074052555 0.0025206162 -0.0012261136 0.0019046896 0.002204133 0.0011496566 0.00028403357 0.000368052 0.0011880654 0.0003484772 0.0005818194 0.00096633943 -2.5555957e-05 0.003129889 -0.00041916044 -0.0036947639 0.000901909 -0.0012678247 -0.0013578987 0.003341409 -0.0014641766 -0.001159742 -0.00020737137 0.003426461 0.0050056945 -0.0021738475 -0.00037593243 -0.0013065265 0.00013139831 0.00145992 0.0029805913 -0.0001178564 -0.0015828054 0.002169962 -0.00033723604 -0.0021263566 0.0012214797 -0.0026446122 -0.0005621856 0.0019034381 -0.0023678706 -0.002270876 0.00038978626 -0.0023937428 0.0015435893 0.0015893452 -0.0033415414 0.0034572384 -0.0010124623 -0.0023958066 -0.0009943575 0.0026751803 0.0005965053 0.0004851592 0.0019458458 0.001246456 0.0029064065 0.0024297629 -0.0009950739 0.0006011081 -0.0009241663 -0.0026769785 0.0018328172 0.002664948 0.0009990697 0.0017346065 -0.00047760672 0.0010241641 -0.00036229097 -0.0013181682 -0.000103642575 0.0005765629 0.0020342318 0.0017493956 0.0012893806 -0.00024911846 -0.00047694088 0.0004870687 -0.0012642305 0.00018453668 0.00011456881 0.0011709884 0.0037348608 0.0016666004 2.5836327e-05 -0.00075866847 0.0008791206 -0.0014422666 0.0017287779 -0.001641852 -0.0005221413 -0.003513771 0.0013054392 -0.0019173884
heide -0.0008651042 0.0026092927 -5.8364683e-05 0.00013572797 -0.002162304 0.0006935726 0.00031725536 -0.001049076 0.0020797865 -0.0007716149 0.0017791117 0.0019718702 -0.0008971192 -0.00012925263 -0.0005771221 0.00095347775 0.0007583088 0.0008980952 0.0017980986 -0.002082502 -0.00015369806 -0.0007015595 0.0012574842 0.0013486126 0.0008647019 0.000812861 -0.0008650135 -0.0013238284 -0.0019183889 -0.00055062026 -0.0029268523 0.0021854131 -0.00072226895 -0.0018655446 0.00047539268 -0.00033293976 -8.622046e-05 0.002492089 -0.0029608263 -0.00010649147 -0.0005816768 0.00041135176 0.00014211073 -0.003198555 -0.0015851642 -0.0031401108 0.0012420998 0.0027926504 0.0008304706 0.001070131 0.0009994397 0.0016498149 0.0029671271 -0.0017994214 0.000452945 0.00013536935 -0.0016780249 0.0024871333 0.0036410277 0.0012473151 0.001673822 0.0012852397 -0.0008155777 -0.003252284 0.0022077565 0.0005046091 -0.0014221476 0.002912779 0.0008833164 -0.00036698362 -0.00094713405 -0.0013413116 -0.0011015794 -0.001258857 -0.00031979158 9.750172e-06 -0.00045643392 0.001592233 -0.0007090724 -0.0018698309 -0.00032607233 -0.0015637786 -0.00085689925 0.0010723945 0.0027313037 0.00022846693 0.002936374 -0.0037691523 0.0012040905 0.0016272994 0.00082275324 0.0024364276 0.0003234688 -0.0024622635 0.00051389955 0.0023406525 0.00045575076 0.0010457406 -0.0030448835 -0.00016533452
take -0.00031209356 0.0009018907 -2.5908548e-05 0.0033942529 -0.0016547013 -0.0014880267 0.00068247854 -0.0012801052 -0.0009098716 0.0011286954 -0.0010435507 0.0020190964 -0.0010498739 0.0018449511 0.000646441 -0.0020064458 0.0021065709 0.000762976 -0.0010847495 -0.0015316018 -0.0023103876 -0.0012074745 -0.00077917747 0.00086031476 0.00181006 0.0003908907 0.0026557765 -0.0018192568 0.002213364 -3.1019856e-05 0.0014090306 -0.0015691384 -0.00029491802 -0.0007746849 0.0001928154 0.0022108324 0.00082100165 0.002155064 -0.002237524 0.0004973453 0.0011378225 -0.0014603264 -0.0026466108 0.0011193034 -0.00059336785 -0.0016055466 0.0017353037 0.0020674104 0.0018122398 0.002823911 -0.0021515517 -0.0023039063 -0.0028128515 -0.002183635 0.0020640905 -0.00059672917 -0.00048165256 -0.0012038215 0.0041651465 0.00019210289 0.0011679287 0.0012315885 0.00020373774 0.0002201179 -0.00055908045 -0.003289067 -0.002383914 -0.0031566075 -0.0002969605 -0.00047560764 0.0004020571 -0.00086269656 0.00061560853 -0.00066914805 -0.0017449006 -4.494495e-05 -0.0010504178 0.0008007752 0.0016600986 -0.000448763 -0.0011115065 -0.003916633 -0.004245586 0.00091882475 0.0019002226 0.00087666564 0.00032911534 -0.0016625781 -0.0018422366 0.003905345 0.000110899906 0.0004159704 0.00014373766 -0.001223408 -0.00015357636 0.0014469397 0.0018716077 9.566376e-05 0.00016967587 -0.0012510832
u6 -0.0017181409 0.0018531028 0.0007645461 0.0024333857 -0.00208382 -0.0031597686 -0.0022892132 0.00011520984 -0.0034189303 0.0020483332 0.0023739722 -0.002113657 0.003777582 -0.0008145103 -0.00012740999 0.003673898 -0.00078759296 0.0005204169 0.0043675434 -0.0003305563 0.0031887717 0.004291272 0.0021099085 0.0012158866 -0.0035672132 0.00017625795 0.0023035964 -0.0012915698 -0.00076745974 -0.0020285877 0.0008393376 0.0008694498 0.00077016547 -0.000108920736 0.0013865795 -0.0074064676 0.0025027476 -0.0048718937 -0.00122823 -0.0014430416 -0.004604763 -9.602704e-05 0.0047630193 0.004674701 -0.00556461 -0.0046507227 -0.00063315476 -0.003368678 -0.0012418717 -0.0044142636 0.00084719365 0.0015361479 0.0024405275 0.0029880418 0.0047532143 0.005078038 0.0018965383 0.0043635014 2.3184926e-05 0.0019795296 -0.0008840598 0.0011839777 0.0018128429 -0.00094443106 0.0006574376 0.00074661674 -0.00044945977 0.0021201714 -0.0012282727 -0.0047179135 0.002555687 0.0030461138 0.00079000567 0.003835277 0.0024301065 -0.0017320373 0.00018498022 0.002651863 -0.0024717066 0.0025450245 -0.0021487614 0.0015027574 -0.0017195377 3.2482436e-05 -0.0013064614 0.003354582 0.0008690827 9.864906e-05 0.002190409 -0.001519408 0.0005207447 0.00096507446 0.001639499 6.643147e-05 -0.0009810961 -0.0015174164 -0.0016660909 -0.00084415317 -0.0007511956 0.000514946
leave -0.0013734631 0.00065237406 -0.0034376096 0.00096431497 0.0017616955 0.0016341467 -4.4266973e-05 0.0014476398 0.0006037791 0.00018304356 0.0031183737 0.0002595519 -0.004472277 -0.00079853425 -0.00022625226 -0.00019665367 -0.0004398472 -0.0005901928 0.0019259515 0.0030740164 0.0024879016 -0.0014679331 0.0023022718 0.0022748406 0.0011612527 0.00028717823 -0.00085740857 -0.0007063739 -0.0018779897 -0.00075642974 0.0037899944 0.00025987154 -0.0015184149 0.0055359113 -3.6169495e-05 9.4585275e-06 -0.00077847554 0.0017212632 -0.0017506257 -0.0006813869 -0.00063934404 -0.0010741099 -0.0017678827 -0.0010481019 -0.0016991663 -0.0008244722 0.0009452807 0.0033185259 0.0016461286 0.0013420413 -0.0027568957 -0.000102349746 0.0011266106 -0.0025331287 -0.00021436301 0.00079210923 0.002132484 -0.001961268 0.00069020863 0.002838333 0.002143442 0.0009954621 0.0003620333 -0.0002424371 0.00026622493 -0.001381863 0.0017491586 0.0012738389 0.00029222903 -0.0021016793 -0.0010691533 0.0028930083 0.00061152346 -0.00085000397 0.00029001554 0.0013815351 -0.0019623253 0.00045763951 0.002004914 0.00048759318 0.003942636 -0.0023629894 0.00046772446 0.0014621206 0.00066673005 0.00031279898 -0.00044643387 -0.0013116015 0.003131008 -0.000913702 0.00045063635 -0.0015339074 -0.00084561895 -0.00049620395 0.0011274713 -0.00066439784 0.0010546816 -0.0011484113 -0.0002134501 0.0033061279
what -0.00030267684 0.0018054037 -0.00087414024 -0.0028512587 -0.0022936305 0.00087801315 -0.0009827872 -0.0011519603 -0.0013690066 0.0010657749 -0.0024251686 -0.00034429936 0.00040840637 -9.273814e-05 0.0006479777 -0.0016988176 8.5202635e-05 0.0019991295 -0.00011748509 0.0017362257 0.00074416975 -0.00025651243 -0.002028553 0.0035332425 -0.00047990188 -0.0042314474 0.0015492246 -6.578138e-05 0.0021414154 -0.0025239708 -0.00062049157 -3.5004578e-05 -0.0031339675 0.0010851405 -0.00055458624 0.002219904 0.0030326666 -0.0009872981 -0.0013930913 0.0019727773 -0.0027533188 -0.0016231668 -0.0030789399 0.00011668587 -0.00013176663 0.0016137064 0.002248724 0.0023989757 0.0010171933 0.0030629241 -0.0006055366 -0.00041374878 -0.00081051176 -0.0038092772 -0.0010785959 0.003038632 -0.0016670119 0.0024898844 0.0007667802 -0.0015318703 -0.0014949231 0.0014001123 -0.0006041841 -0.0018194602 -0.000312329 0.0039105485 -0.002347199 0.00058089197 -0.00027130844 -0.0018738671 -0.0023254333 0.0011837312 -0.00076990016 -0.0007895464 -0.0019508726 0.0012529059 0.0013129228 -0.0034050143 -0.002155603 0.0013594868 -0.0017366764 0.0023820335 0.0001364739 -0.0003465094 0.003905915 -0.0034545646 -0.0008906975 -0.0018176741 0.00038901254 0.002670723 -0.00045501385 -0.0015929653 -0.00039596 0.0010076154 -0.00065548875 -0.0010673408 0.0015481439 -0.0010130429 -0.0015787862 -0.00023527323
cheapest -0.001050963 0.0016519187 -0.0012356834 -0.00025087126 -0.0007156997 0.00030981287 -0.001123709 -0.00025829073 0.0003755448 0.0021990968 0.0018871074 0.0011266194 -0.00094513793 -0.0018763819 -0.0015546553 0.001636246 -0.0006259137 0.0006395432 0.0012802061 0.0015041868 0.0016968144 0.00017293819 0.00061361614 0.0017050961 -0.00030971368 0.00031833022 0.00011310756 -0.0015714854 0.0006228081 0.000894629 0.0031363198 0.0015357488 -0.001285442 0.00031712602 -0.0007763215 -7.3357034e-05 0.0002402486 -0.0001639364 -0.00019244893 0.0022664634 0.0007309373 0.0031814945 -0.0011759705 -3.651471e-05 -0.00022441136 0.002267239 0.00016569387 0.0008084809 -9.197619e-05 -0.00073788833 -0.0006850112 0.00051975314 0.00012609681 -0.0018368752 9.168483e-05 -0.0011802736 -0.0012573443 3.4236946e-05 -1.3307835e-05 0.002745719 0.0006463131 0.0009795956 -0.0020102651 -0.0019177343 -0.00062081224 -0.00084631564 0.00015518916 0.00064392283 0.0015287136 -0.0005820595 -0.0015569293 -0.0011805671 2.7492659e-05 -0.00025106108 -0.0004415889 0.002455412 -0.0009468872 -0.00014899403 0.00069107785 -0.0005550705 0.00068321405 -0.0014846409 0.0006590509 -0.0013408894 0.0018914168 -0.0016006442 -0.0017920092 -0.00069329754 0.0005133522 0.00082878635 -0.00026764753 -0.0015202423 5.928865e-05 -0.00174679 0.0027464023 0.0013095734 0.00059534266 -0.00027016175 0.00023870094 0.0010060011
need 0.0005358942 0.0057521407 -0.0020556455 0.0028639676 -0.0022287806 0.0012814517 -0.0005637378 -0.00072833453 0.003722336 -0.0022434383 0.0012995501 0.0014679068 -4.3850476e-05 0.00207361 -0.0046768445 -0.0033069076 0.00030115608 -0.00015782719 0.0037591348 0.0003249456 0.0015749718 0.00014597423 -0.000565139 -0.0035590725 0.0020903081 -0.00058937824 0.0020916406 -0.0014468017 -0.0006533207 -0.0026483096 -0.0024778151 0.0014828224 -0.0004938181 0.00017047962 -0.0030342175 -0.00029536418 0.0008301877 -0.0011867613 0.00034360905 0.000567463 -0.0002484949 0.0009870911 -0.00204252 0.0003736925 -0.0014712126 0.00027245394 0.0013554699 -0.00034370561 -0.0018938896 -0.0017015985 0.0028301217 0.0023449261 0.0016810152 8.821178e-05 -0.0011339508 -8.293432e-05 0.0010542568 -0.00074498454 -0.0025314766 0.00035127744 -0.0032315417 0.00056504906 0.0005796026 -0.0009834454 0.0011959373 -0.00035531496 -0.0005195305 -0.0023278708 -0.0017451342 -0.0042451653 0.0013665787 0.0004827179 -0.00048535148 -0.00288902 -0.0019323404 0.0020027834 -0.00019756645 0.0015056831 0.0019939991 -0.0029245196 -0.0016242232 0.0021244579 -0.0019648583 -0.00051002315 -0.0007227826 0.00081271585 0.00043747437 -9.0748144e-05 0.0035697012 0.00014560357 0.0034468912 0.0025160562 -0.0010984157 0.001668778 0.0015890319 0.0028414114 -0.000214335 -0.0020506037 0.0006892697 0.0042507304
milbertshofen 0.000715227 0.00052365486 -0.00030924924 0.00024404813 0.0007772933 -0.00010435242 0.0001679217 -0.0014386717 -0.0007021367 -4.2878487e-06 -0.001132358 0.00035516027 0.00072182796 -0.0010562424 0.0007146823 -0.000973625 0.00069815037 -0.0005268166 0.00094840024 -0.00048862305 0.00097170443 -0.0009245001 0.0016538742 0.0018869543 -0.0010469039 0.001413686 -0.0005556828 -8.071339e-05 -0.00041207878 0.0004942238 -0.00059682893 0.000822502 -0.0019301646 0.0007420357 0.0003534971 9.308415e-05 -0.00018660862 -0.001235481 -0.0013709087 0.0013814647 -0.00055261847 -0.00032581002 0.00068582786 -0.0007507597 0.00061158795 0.00026919908 -0.0003963859 -0.0009633614 0.00022215993 0.00027725584 0.00019020298 -0.00026349825 3.8010727e-05 -0.00030907747 0.0018692286 -0.0016963058 -0.0016593366 -0.001458746 -0.0004251809 -0.0016324234 0.0014614764 0.001931965 0.0011938831 -0.0013205445 0.00032254678 0.0015832719 0.001092449 0.0018150279 -0.0007302666 -0.00055437745 -0.0008259722 -0.00041586685 -4.4632023e-05 0.00034087908 -0.00044464442 0.00014120131 0.0011910184 -0.0011901546 -0.00046708214 0.00089643354 -0.0006645299 -0.0011872 -9.635283e-05 0.000113980765 0.00019876748 -0.0017548249 0.00038525168 -0.0026038769 0.000460288 0.00024035589 0.00013065038 0.0010934193 -3.4075932e-05 -0.002304896 0.00045311003 0.0003090336 0.0005921627 -0.0011404807 0.0012847887 -7.149405e-05
sendlinger 5.8273454e-05 0.0024953783 0.00061224576 -0.00012233581 -0.0016709692 0.0007082093 -0.0005179146 -0.0019966655 -7.2683074e-06 0.0006673 -0.00032440634 0.0001686912 0.0009997318 -0.00051783974 -0.00048783934 -0.0007337978 -0.0010183301 0.00022778368 -0.00047282391 0.0007191258 0.0007141931 0.00026978756 0.0006524726 0.00065353164 0.0015354966 -0.0006659556 9.052663e-05 -0.00075660367 -0.0003815871 -0.00092355756 0.0018203435 -0.00025448838 -0.00083705055 0.0013038109 -5.9891427e-05 -0.0011693559 0.0003241684 -0.0001535967 -0.0012374338 0.0012307056 -0.002068948 0.0011133315 -0.0010483367 -0.00019919439 0.00075934024 0.00087965734 -0.00046418808 0.000104661274 0.00065334764 -0.0007812463 0.00068794447 0.0009865169 -0.0002470843 -0.0011902754 -0.0009487448 -0.0002978409 -0.0005657947 -0.00056410604 -0.00084269076 0.00040246604 0.0005146743 0.0022914265 -0.0014118793 -0.0017617552 -0.000671019 -5.636055e-05 0.0005200511 -0.0008007989 -0.0012540398 -0.0015526449 -0.0029058955 -0.001369713 8.0113554e-05 -0.0011733789 -0.0006572315 -0.0002936059 0.00027183912 0.00015185986 0.002157522 0.0009096944 0.00012800828 0.0014230809 -0.00088581844 0.0006498387 -0.00056925096 1.1781483e-05 -0.0009497847 5.5251858e-05 -0.0007707218 0.0007207877 -0.0004455545 5.9531936e-05 -0.00022478106 0.00097448035 0.0004190192 -0.0001508713 0.00022458972 -0.0024089823 0.0022771363 0.0017599303
tor -0.0028434854 0.0010866787 -0.0032019515 -0.00051983574 0.0014063825 0.0013920941 -0.0009924344 0.0006937872 0.00018423602 -0.0021015042 -0.000568286 -0.0013956508 1.23225955e-05 -0.0042003365 0.0011309566 0.0013764787 -0.0015260297 0.0019305003 0.00027035456 0.0018639239 0.0023853139 -0.00064722716 0.002725398 -0.0019311274 -0.001210375 0.00039244644 -0.0029524292 0.0017055393 0.0023458241 0.003218862 0.0018257496 -0.00036173727 -0.00032032008 0.00041111637 8.648094e-05 0.0001648763 0.0021642314 -0.0022151477 -0.0012031152 0.00050431956 -0.0014477324 0.0031842426 -0.00031902638 0.00022489471 -0.0023461564 0.0019156997 -0.0006730277 -0.002115954 -0.0011618307 -0.0019767415 0.00091057934 0.0008484376 0.0014595661 -0.0018129548 0.001106689 -8.408067e-05 -0.0024999946 0.00074212736 -0.0018161954 -0.0034943242 -0.005075246 0.003138473 -0.0018977699 -0.00049047533 0.00043571394 0.0032238418 0.004492755 0.002559419 0.0013637719 0.0015031865 -0.0021556614 -0.0032906928 0.004240687 0.00041230017 -0.00076903746 0.0048750048 -0.00031149946 0.0005958388 -0.003366432 0.0024926472 0.0002856608 -0.00019125847 0.0012982665 -0.00073716714 0.005335606 -0.0017173222 -7.664905e-05 -0.0015274659 0.0024842878 0.0016745179 -0.0029505177 -0.001441801 0.00037486138 -0.00056301465 -0.0006428821 -0.00030952977 -0.00017605044 -0.00035203368 0.0023281723 -0.0008534671
olympia -0.0029240919 -0.0005904099 -0.0017878726 -0.0005368153 0.00058133376 0.0011800394 -0.0032366372 -0.00050626806 -0.00090618967 -0.00018021496 -0.0008064928 0.0004622724 0.0013140924 -0.0009537969 -0.0012753205 -0.0027427734 0.00078051956 0.0017734538 0.00075129827 -0.00088402384 0.0010339062 -0.00055535714 -0.0007897591 -0.00028790202 0.0010040695 -0.002906835 -0.001095346 -0.00076404033 -0.002020636 0.0014888512 0.0022856544 0.00028670934 -0.000118242686 -0.0006609071 -0.0013463643 0.0019897714 -0.001754754 -0.0015964716 -0.0010693596 -0.00010331115 -0.003254769 0.0013158445 -0.00035402467 0.00036750425 -0.0017166494 0.00096689886 -0.0004624585 -0.00042827465 0.002017642 -0.0006709292 -0.0008754144 -0.0018284831 0.0004913507 0.00095191016 -0.0010728734 -0.0010470627 0.0026100904 -0.0010953475 -5.4646487e-05 0.0021078638 0.0019716246 8.663527e-06 -0.0004667855 0.00018382623 -0.0009009898 -0.0007580186 0.00054223504 0.00269951 -0.0007807834 -0.0005958206 0.0027961307 0.00025103768 -0.0011095261 -0.0012269511 -0.003371423 0.0015891729 0.0006489687 0.002232077 0.0014658703 -6.2756546e-05 -0.00052006176 0.0006342282 0.0020753988 0.0001483019 8.4556945e-05 -4.580437e-05 0.0008649468 -0.0006047059 -0.0009748679 0.0017617727 -0.0010834048 -0.0006652573 -0.00015748397 -0.00053543615 0.0002656422 0.0019477163 -0.00030056373 0.00085057656 -9.623692e-05 0.00067106937
einkaufszentrum -0.0009925949 8.304082e-05 -0.0026377053 0.00045137852 -0.00037546037 -0.0005071928 0.00039123176 -0.00077389623 0.0002126233 0.000981796 -0.00026541366 -0.00013866079 -0.0003310745 -0.0006136566 0.0004124127 -0.0006520845 0.0002091072 0.00040172928 0.00030381497 0.0006612356 0.0013945301 -0.00082531455 5.3835272e-05 0.0007789151 -0.00055582984 -0.000766658 5.029889e-05 -0.001730415 0.0015913947 0.00040920326 0.0022086287 -0.00044471593 -0.0021049932 0.00083486753 -0.0014482812 -0.00096299505 0.00036379785 0.0003828505 -0.0013628864 0.00022211664 -0.002231088 0.00086950173 -0.00087832497 -0.0015285348 -0.0011101677 0.0004903533 0.00026577496 -0.0008416824 -0.00090133474 -0.0020320374 -4.1859486e-05 6.969345e-05 -0.00073742936 -0.0012448406 -4.8254253e-05 -0.00058978575 0.00017885958 0.00018196649 0.00019793677 -0.0010251877 0.00012157387 0.00055165077 -0.0003579762 -0.0017108463 -0.00092900847 -0.0003239554 0.0011239634 0.0017144383 0.00039339147 -0.0005245488 0.00095206284 -0.0011904777 0.00044168226 0.0011374656 -0.0008455053 -0.00059884327 0.00031643687 -0.00038101053 0.0005316628 -0.0005179752 0.0007871064 -0.00062982726 0.000939938 0.0005209701 3.981757e-05 -0.0014170806 -0.00057002605 -0.0020239938 9.4828436e-05 0.00034474029 -0.00036063246 -0.00013920225 -0.00048441344 -0.000980697 -0.0001423371 0.0016308813 -0.0010319254 -0.00025367513 0.0016626435 -0.0008352349
winterstrae -0.0015134539 0.0008100445 -0.0034830463 0.00030983312 -0.00055994483 0.00031877382 -0.00050925085 5.133438e-06 0.0005464672 0.0014222402 0.00060432195 0.00095300196 0.00013685696 0.00023687522 -0.00077528844 -0.0003600085 0.0032440214 0.0002586513 0.0017213401 0.0018462103 0.00036100464 -0.0023764533 0.0014384472 -0.0006567944 0.0009269467 0.0003131978 0.003412289 0.00074838626 0.00014816441 -0.0015189087 0.0028845577 -0.0017355392 -0.0031834973 0.0015126932 -0.00076800026 -0.00014201373 -0.00026421435 0.00037643214 -0.0026141084 0.0017507803 -0.002100862 0.0020122174 -0.0024446936 -0.00015885255 -0.0014954732 0.0008929169 0.0004214955 -0.00050229725 0.00073139864 0.00022720185 -0.0013204642 -0.00015385033 0.0008672458 -0.002705118 0.00015181 0.0004367538 -0.0019249158 -0.0017536232 0.00044784465 -0.00051989005 0.0007194287 0.0011531775 0.00022731312 -0.002045239 -0.0011610079 -0.0007140937 -0.0026873834 2.4274294e-05 0.00092500047 -0.0016631713 0.00074997154 -0.0010171417 0.0010033129 -0.00047720977 -0.00012782996 0.0020555737 -0.000906062 0.0011272301 0.001945159 0.00017518668 0.0005968598 -0.00035050916 0.0018434735 0.00060388685 0.00079618354 -0.0009169686 0.0016261914 -0.00044405146 0.00077413366 0.00027135754 -0.0010283586 -0.0007841427 -0.0013889844 0.0004301512 -1.4901806e-05 0.0007815937 0.0006294532 -0.0019519513 0.0026016582 -0.0004272131
